%YAML:1.0
---
opencv_ml_ann_mlp:
   format: 3
   layer_sizes: [ 2, 2, 1 ]
   activation_function: SIGMOID_SYM
   f_param1: 6.6666666666666663e-01
   f_param2: 1.7159000000000000e+00
   min_val: -9.4999999999999996e-01
   max_val: 9.4999999999999996e-01
   min_val1: -9.7999999999999998e-01
   max_val1: 9.7999999999999998e-01
   training_params:
      train_method: RPROP
      dw0: 1.0000000000000001e-01
      dw_plus: 1.2000000000000000e+00
      dw_minus: 5.0000000000000000e-01
      dw_min: 1.1920928955078125e-07
      dw_max: 50.
      term_criteria:
         epsilon: 1.0000000000000001e-05
         iterations: 1000
   input_scale:
      - 2.
      - -1.
      - 2.
      - -1.
   output_scale:
      - 5.2631578947368418e-01
      - 4.9999999999999994e-01
   inv_output_scale:
      - 1.8999999999999999e+00
      - -9.4999999999999996e-01
   weights:
      -
         - -4.7226013830353333e+00
         - -6.0196422468483775e+00
         - -4.4044101213951636e+00
         - -5.3233555179130185e+00
         - 3.9770209760094168e+00
         - -5.2611963205199732e+00
      -
         - 1.2534130231264857e+00
         - -1.2347852285545622e+00
         - -1.9737969600722567e+00
