%YAML:1.0
---
opencv_ml_ann_mlp:
   format: 3
   layer_sizes: [ 784, 100, 10 ]
   activation_function: SIGMOID_SYM
   f_param1: 6.6666666666666663e-01
   f_param2: 1.7159000000000000e+00
   min_val: -9.4999999999999996e-01
   max_val: 9.4999999999999996e-01
   min_val1: -9.7999999999999998e-01
   max_val1: 9.7999999999999998e-01
   training_params:
      train_method: BACKPROP
      dw_scale: 1.0000000000000001e-01
      moment_scale: 0.
      term_criteria:
         epsilon: 1.0000000000000001e-05
         iterations: 1
   input_scale:
      - 1.
      - 0.
      - 1.
      - 0.
      - 1.
      - 0.
      - 1.
      - 0.
      - 1.
      - 0.
      - 1.
      - 0.
      - 1.
      - 0.
      - 1.
      - 0.
      - 1.
      - 0.
      - 1.
      - 0.
      - 1.
      - 0.
      - 1.
      - 0.
      - 2.1038466639100939e+00
      - -4.4180779942111980e-03
      - 7.3465782237226585e-01
      - -5.7548196085827497e-03
      - 1.1340324793763239e+00
      - -4.0825169257547667e-03
      - 2.7216779505031781e+01
      - -4.0825169257547676e-03
      - 1.
      - 0.
      - 1.
      - 0.
      - 1.
      - 0.
      - 1.
      - 0.
      - 1.
      - 0.
      - 1.
      - 0.
      - 1.
      - 0.
      - 1.
      - 0.
      - 1.
      - 0.
      - 1.
      - 0.
      - 1.
      - 0.
      - 1.
      - 0.
      - 1.
      - 0.
      - 1.
      - 0.
      - 1.
      - 0.
      - 1.
      - 0.
      - 1.5309438471580373e+01
      - -4.0825169257547667e-03
      - 5.1378417543335386e+00
      - -4.7096882748057442e-03
      - 9.4786496244496321e-01
      - -8.7993464013640769e-03
      - 4.7730511152646854e-01
      - -1.1590559124901078e-02
      - 3.3760533284073685e-01
      - -1.4758979800687546e-02
      - 3.0085576674119052e-01
      - -1.9284854648110313e-02
      - 2.0537012327968251e-01
      - -2.4671797476665862e-02
      - 1.8086495511061523e-01
      - -2.9071027118112890e-02
      - 1.7563481948961016e-01
      - -3.0592658308098594e-02
      - 1.7563787008994008e-01
      - -3.1164012749625037e-02
      - 1.6883284765585466e-01
      - -3.1962871942047555e-02
      - 1.7342828322169204e-01
      - -3.0202535523057669e-02
      - 1.6749403091669035e-01
      - -3.1310217512693320e-02
      - 1.8472760188024673e-01
      - -2.8383396028899912e-02
      - 2.3092249674211657e-01
      - -2.3119190632164905e-02
      - 2.6906821685325510e-01
      - -1.9166625980513542e-02
      - 3.1165625491435334e-01
      - -1.6772300785307451e-02
      - 5.1465024036334295e-01
      - -1.0996360135763428e-02
      - 8.2560602957106433e-01
      - -8.3248607981748976e-03
      - 1.2398189311055088e+00
      - -4.3806935565727980e-03
      - 1.
      - 0.
      - 1.
      - 0.
      - 1.
      - 0.
      - 1.
      - 0.
      - 1.
      - 0.
      - 1.
      - 0.
      - 3.8273596178950933e+00
      - -4.0825169257547667e-03
      - 7.7076371143579641e+00
      - -5.3953459800505747e-03
      - 1.2262463813256379e+00
      - -8.5224123502131831e-03
      - 2.1857209069202939e+00
      - -1.1985036306279612e-02
      - 3.7480844479353959e-01
      - -1.7653477749775714e-02
      - 2.0022325818265649e-01
      - -2.7710898932479657e-02
      - 1.4013031729855807e-01
      - -3.7020094324990732e-02
      - 1.0294031691548404e-01
      - -5.2151280221332807e-02
      - 7.7337564294725908e-02
      - -6.7036200730668419e-02
      - 6.4350144069828766e-02
      - -8.3017048362084941e-02
      - 5.3134064659327226e-02
      - -9.9379297835572686e-02
      - 4.5528222999621615e-02
      - -1.1518412777789271e-01
      - 4.0333765593801335e-02
      - -1.2913325615454091e-01
      - 3.8172050383375560e-02
      - -1.3839467726744725e-01
      - 3.7314415010388235e-02
      - -1.3888363076174817e-01
      - 3.8862636726537038e-02
      - -1.3184343822661324e-01
      - 4.2965532185901718e-02
      - -1.2042952234827012e-01
      - 4.9839378548531522e-02
      - -1.0189079484830869e-01
      - 6.5388748483052345e-02
      - -7.8604904363951941e-02
      - 8.9976498603427962e-02
      - -5.6995613040341446e-02
      - 1.3390326577294903e-01
      - -3.9657683879755073e-02
      - 2.5247440459466680e-01
      - -2.3728386125155435e-02
      - 4.0004769536487883e-01
      - -1.4088346338433149e-02
      - 9.0704718335127554e-01
      - -7.8308406829326795e-03
      - 1.
      - 0.
      - 1.
      - 0.
      - 1.
      - 0.
      - 1.
      - 0.
      - 1.6603229489473221e+00
      - -5.3683775349296749e-03
      - 1.5163428875843565e+00
      - -8.8706058923684866e-03
      - 1.1709417775958955e+00
      - -1.4070817027444010e-02
      - 3.1744113434375015e-01
      - -2.2146809806048971e-02
      - 1.6587883755403249e-01
      - -3.5180136797917726e-02
      - 1.0075751730349713e-01
      - -5.5023680199439789e-02
      - 6.8516103777253992e-02
      - -7.9096132135524966e-02
      - 4.8580266476534253e-02
      - -1.0764901248535225e-01
      - 3.7687844665627954e-02
      - -1.3716993570650837e-01
      - 3.0729268372916497e-02
      - -1.6710576141191993e-01
      - 2.6462458803787101e-02
      - -1.9600875548259125e-01
      - 2.3151210409567968e-02
      - -2.2449111368547139e-01
      - 2.0925208082991271e-02
      - -2.4865599141752553e-01
      - 1.9801368144819295e-02
      - -2.6211797063462611e-01
      - 2.0007967342284320e-02
      - -2.6259690164666721e-01
      - 2.0980704578722208e-02
      - -2.4785590321914444e-01
      - 2.3255946689967451e-02
      - -2.2194700322681937e-01
      - 2.7278164226132485e-02
      - -1.8721140499215855e-01
      - 3.5205639871294270e-02
      - -1.4764013164625320e-01
      - 4.7552439450484478e-02
      - -1.0816436385538702e-01
      - 7.2393683818392285e-02
      - -7.6812111654108173e-02
      - 1.1396537993357475e-01
      - -4.7075299604561950e-02
      - 1.8633604677174664e-01
      - -3.0201967580920600e-02
      - 5.4890432975324055e-01
      - -1.5241243556148313e-02
      - 1.8870427315559291e+00
      - -5.2837196483566011e-03
      - 1.
      - 0.
      - 1.
      - 0.
      - 6.4460793564548942e+00
      - -4.0825169257547667e-03
      - 1.4881961063114144e+00
      - -7.7634230212578793e-03
      - 1.0378574750912513e+00
      - -1.4893254767559455e-02
      - 2.9626314199892556e-01
      - -2.3962750468679763e-02
      - 1.2271782724507993e-01
      - -5.0340898033052542e-02
      - 7.5503214617767808e-02
      - -7.8767470263075984e-02
      - 4.8023122663132030e-02
      - -1.1618154027353761e-01
      - 3.3763819709914628e-02
      - -1.6124756197962478e-01
      - 2.5250311458977676e-02
      - -2.1196163534976650e-01
      - 2.0052094965084099e-02
      - -2.6689873121059338e-01
      - 1.6720901271095080e-02
      - -3.2567801032750021e-01
      - 1.4433780328490018e-02
      - -3.9024154804428063e-01
      - 1.2838641258765621e-02
      - -4.5207637577719822e-01
      - 1.1935670058468253e-02
      - -4.9939798378235850e-01
      - 1.1566812160518121e-02
      - -5.2342832397506234e-01
      - 1.1674165860786075e-02
      - -5.1761889440708364e-01
      - 1.2286269902340807e-02
      - -4.8090241906897757e-01
      - 1.3504748722938009e-02
      - -4.2307969402109197e-01
      - 1.5561919052793203e-02
      - -3.5674039490496118e-01
      - 1.9127727707166167e-02
      - -2.8368364842044319e-01
      - 2.5034828244085983e-02
      - -2.1683666135332635e-01
      - 3.4856099854641456e-02
      - -1.5852438026891419e-01
      - 5.0904882032675139e-02
      - -1.0878458131852732e-01
      - 8.2190903785030009e-02
      - -7.0922530876102396e-02
      - 1.8750171775889582e-01
      - -3.8953481864410611e-02
      - 4.8068752630553679e-01
      - -1.4252385154959168e-02
      - 2.8379498678091473e+00
      - -5.7704980645452665e-03
      - 1.
      - 0.
      - 1.
      - 0.
      - 1.1536420576779074e+00
      - -1.1901740561710412e-02
      - 3.4806876020438432e-01
      - -2.2050155958947749e-02
      - 1.3108076953627013e-01
      - -5.1838074992610297e-02
      - 6.1951416938616229e-02
      - -9.0659703547970996e-02
      - 3.8928522875927463e-02
      - -1.3966710556553796e-01
      - 2.7267172044038453e-02
      - -1.9708212055276855e-01
      - 2.0310544526470908e-02
      - -2.6438472766459992e-01
      - 1.6058619090491534e-02
      - -3.4073044164379185e-01
      - 1.3413662972845386e-02
      - -4.2253574910981884e-01
      - 1.1659149742615876e-02
      - -5.1540864854364965e-01
      - 1.0458320244453354e-02
      - -6.1603532693124374e-01
      - 9.7011251647249400e-03
      - -7.1598329682613426e-01
      - 9.3313156332037895e-03
      - -7.9412046598170660e-01
      - 9.2169012100847113e-03
      - -8.3504925263841268e-01
      - 9.2684362963140459e-03
      - -8.2418581131767721e-01
      - 9.5139360324611195e-03
      - -7.6283928350277319e-01
      - 1.0108144176694272e-02
      - -6.6655949828398464e-01
      - 1.1171070003323126e-02
      - -5.5625039790047126e-01
      - 1.3031960000588465e-02
      - -4.4764565402688039e-01
      - 1.6161069925254887e-02
      - -3.4762461409223266e-01
      - 2.1051996788279799e-02
      - -2.6084090667243637e-01
      - 2.8664363472002463e-02
      - -1.9030605326636277e-01
      - 4.3799712526290821e-02
      - -1.3108012967263932e-01
      - 8.8715176669426923e-02
      - -7.4846037383439853e-02
      - 2.2544219187530931e-01
      - -3.1930129109272974e-02
      - 1.7465783701487902e+00
      - -8.2089183396993146e-03
      - 1.
      - 0.
      - 3.0382652336798213e+01
      - -5.5701529284130054e-03
      - 5.6952462131221326e-01
      - -1.5661927086085863e-02
      - 1.6422848396732007e-01
      - -3.6365660633163578e-02
      - 7.0587879827199648e-02
      - -7.9024307931213802e-02
      - 4.0514631513379903e-02
      - -1.3328908621586855e-01
      - 2.6780784428177353e-02
      - -1.9915441070732662e-01
      - 1.9322387991394883e-02
      - -2.7542969146413898e-01
      - 1.5052602089655870e-02
      - -3.6333594608959097e-01
      - 1.2418851013265312e-02
      - -4.6308053298899382e-01
      - 1.0822571024019725e-02
      - -5.7484518896921732e-01
      - 9.8544086338043825e-03
      - -6.9880387280738732e-01
      - 9.2830187890575854e-03
      - -8.2877368352491809e-01
      - 9.0074868253702551e-03
      - -9.5689204766999747e-01
      - 8.9149207576242825e-03
      - -1.0564726393771116e+00
      - 8.9019724135588046e-03
      - -1.1047183078736826e+00
      - 8.9022737607425025e-03
      - -1.0835076091183178e+00
      - 8.9165573854273171e-03
      - -9.9895164574737383e-01
      - 9.1017039348284430e-03
      - -8.7474762363395109e-01
      - 9.6395423414931299e-03
      - -7.2455973459718970e-01
      - 1.0744575840055573e-02
      - -5.8060589820293107e-01
      - 1.2804502010278487e-02
      - -4.5215876382959225e-01
      - 1.6164493498503397e-02
      - -3.3932343107123347e-01
      - 2.1755020593201647e-02
      - -2.4893037280300365e-01
      - 3.2098587832302343e-02
      - -1.7293970156995084e-01
      - 5.6103241780279242e-02
      - -1.0410424039345649e-01
      - 1.2964213042516703e-01
      - -4.8317622009459757e-02
      - 4.8541314454218493e-01
      - -1.4708018279628204e-02
      - 5.2117237350060845e+00
      - -4.0825169257547667e-03
      - 6.7049033577396222e-01
      - -1.3231009292606189e-02
      - 2.4375065889415110e-01
      - -2.6243820940936937e-02
      - 9.9317704767939163e-02
      - -5.9158590845022965e-02
      - 4.8869076680976266e-02
      - -1.1300485291708953e-01
      - 3.0097579331474431e-02
      - -1.7844152508780123e-01
      - 2.0746524026233240e-02
      - -2.5800481011643789e-01
      - 1.5629562512516043e-02
      - -3.5091181161850771e-01
      - 1.2649151806693614e-02
      - -4.5909822417438662e-01
      - 1.0837898273378558e-02
      - -5.8414555692950476e-01
      - 9.8279264066316891e-03
      - -7.2495420680603806e-01
      - 9.3051070721609473e-03
      - -8.7563926623715105e-01
      - 9.0948880042541792e-03
      - -1.0148029044892126e+00
      - 9.0573545680194597e-03
      - -1.1321685662228853e+00
      - 9.0554108274627180e-03
      - -1.2021883425077196e+00
      - 9.0808663884127394e-03
      - -1.2295375038647802e+00
      - 9.0723709836048102e-03
      - -1.2096976992530375e+00
      - 9.0356182139097012e-03
      - -1.1446098274798200e+00
      - 9.0106171506072388e-03
      - -1.0231255420609500e+00
      - 9.2054011907544663e-03
      - -8.6295358399973765e-01
      - 9.8953953711339582e-03
      - -6.9048023851396068e-01
      - 1.1378785206741562e-02
      - -5.3290132006238677e-01
      - 1.4125519371424632e-02
      - -3.9754744006276060e-01
      - 1.8925092601564067e-02
      - -2.8768127889100548e-01
      - 2.8009150098363078e-02
      - -1.9700702540851978e-01
      - 4.6932781744196905e-02
      - -1.2122893967131874e-01
      - 1.1071645081439330e-01
      - -5.6808610912865203e-02
      - 4.8271828388700305e-01
      - -1.5390667951263946e-02
      - 1.2357769628161059e+00
      - -5.0254929821188319e-03
      - 3.4084327675239168e-01
      - -1.7320519180300704e-02
      - 1.3079811498430369e-01
      - -4.3080539138663498e-02
      - 6.4712412758713506e-02
      - -8.5248896947691236e-02
      - 3.7207419379852932e-02
      - -1.3945836882493945e-01
      - 2.4858152431941404e-02
      - -2.1088330755129384e-01
      - 1.7838905150873663e-02
      - -3.0001797729333762e-01
      - 1.3760719731315114e-02
      - -4.0728152617562596e-01
      - 1.1354928120847717e-02
      - -5.3288847995060151e-01
      - 9.9935311401737701e-03
      - -6.8062942536381499e-01
      - 9.3252364895925095e-03
      - -8.4198850255578506e-01
      - 9.0567574469155917e-03
      - -9.8243825473033908e-01
      - 9.0001864657767855e-03
      - -1.0749410206177445e+00
      - 8.9792216175286228e-03
      - -1.1079807253900842e+00
      - 8.9938924314447530e-03
      - -1.1065909866747212e+00
      - 9.0251680310060728e-03
      - -1.1041449232725031e+00
      - 9.0281449405893929e-03
      - -1.1080246799657834e+00
      - 9.0074291609982555e-03
      - -1.1002043281838871e+00
      - 8.9779656800706657e-03
      - -1.0437866693996505e+00
      - 9.0743768988995922e-03
      - -9.1297850442442741e-01
      - 9.5603998434639730e-03
      - -7.3919131377694225e-01
      - 1.0794544642347399e-02
      - -5.7100550467303579e-01
      - 1.3318540978204832e-02
      - -4.2367100161696558e-01
      - 1.8229752003881883e-02
      - -2.9819620669549857e-01
      - 2.7511175302463796e-02
      - -1.9768613533173737e-01
      - 4.6299027012198526e-02
      - -1.2068381546044687e-01
      - 1.1199645993336554e-01
      - -5.3935628496243296e-02
      - 4.9683176133878221e-01
      - -1.3505543379059230e-02
      - 1.2135025916301894e+00
      - -5.9057126126002548e-03
      - 2.6564179405804561e-01
      - -2.1109667901146024e-02
      - 1.0349084381728776e-01
      - -5.2989036881848292e-02
      - 5.4134811331694038e-02
      - -9.3078492356859208e-02
      - 3.3829270306457576e-02
      - -1.5039873374962087e-01
      - 2.3065104567247426e-02
      - -2.2619102328598753e-01
      - 1.6574686520695520e-02
      - -3.2364534010158574e-01
      - 1.2813608645905221e-02
      - -4.4213121716537462e-01
      - 1.0680765347830561e-02
      - -5.8424747721514481e-01
      - 9.5801693578614795e-03
      - -7.4857559262355899e-01
      - 9.0918936977612066e-03
      - -9.0044933236446290e-01
      - 8.9727262193568594e-03
      - -9.9238770713310442e-01
      - 8.9819519055079709e-03
      - -9.9508844582905964e-01
      - 9.0820062361602442e-03
      - -9.4955659857977437e-01
      - 9.1764797612000990e-03
      - -9.0890462620353851e-01
      - 9.1956015418566493e-03
      - -9.1393597102263968e-01
      - 9.1467019539129592e-03
      - -9.5430483674302413e-01
      - 9.0464398169267032e-03
      - -1.0030879428764545e+00
      - 8.9980387824558083e-03
      - -9.9948655135463504e-01
      - 9.0926540338881860e-03
      - -9.0150861177674246e-01
      - 9.5622567025844020e-03
      - -7.3668151560828887e-01
      - 1.0769019356842361e-02
      - -5.6758942145055025e-01
      - 1.3360669430876519e-02
      - -4.2017189920780096e-01
      - 1.8851421857897347e-02
      - -2.9017459542242080e-01
      - 3.0444269756015222e-02
      - -1.8148235125157422e-01
      - 5.5290631176703513e-02
      - -1.0493977495234405e-01
      - 1.3419187001379709e-01
      - -4.7213172933187608e-02
      - 5.0079854522521294e-01
      - -1.4130865617771425e-02
      - 8.6592077801118750e-01
      - -5.7728051867412507e-03
      - 2.2961390400521112e-01
      - -2.2632277138113645e-02
      - 1.0095565869099236e-01
      - -5.2803174684012043e-02
      - 5.5061939830372608e-02
      - -9.2205806740944793e-02
      - 3.4378371408908800e-02
      - -1.4745169983709391e-01
      - 2.3012820556852713e-02
      - -2.2728458804171869e-01
      - 1.6184974494829037e-02
      - -3.3242831639121695e-01
      - 1.2441736626448881e-02
      - -4.6269615812556164e-01
      - 1.0366445817928003e-02
      - -6.1903352143624946e-01
      - 9.4040119553180906e-03
      - -7.8428268532505208e-01
      - 9.0616285729332759e-03
      - -9.0820987918795326e-01
      - 9.0276598486294709e-03
      - -9.3137298385228173e-01
      - 9.2614461294292395e-03
      - -8.6957693484385412e-01
      - 9.6085890673250039e-03
      - -7.9705952732714869e-01
      - 9.7127245345455526e-03
      - -7.7141210191978915e-01
      - 9.5067723677463144e-03
      - -8.0356009282996343e-01
      - 9.3102427461099514e-03
      - -8.7393929706678419e-01
      - 9.1123038468280352e-03
      - -9.5157541370809628e-01
      - 9.0526943272145437e-03
      - -9.6213106545131566e-01
      - 9.1642554906533492e-03
      - -8.6347325893960780e-01
      - 9.7610766420335397e-03
      - -7.0132424639191060e-01
      - 1.1122250632863200e-02
      - -5.3739656439070949e-01
      - 1.3932455672998783e-02
      - -3.9677102693919941e-01
      - 2.0093294770402510e-02
      - -2.7122264169335486e-01
      - 3.4631988773663712e-02
      - -1.5932446435323991e-01
      - 7.0653342057910351e-02
      - -8.1258408700802698e-02
      - 1.6657039989223177e-01
      - -3.6950867042760085e-02
      - 6.3381134461946820e-01
      - -1.1873399189204705e-02
      - 1.1890742635516922e+00
      - -7.0551739637400414e-03
      - 2.7187404253543629e-01
      - -2.0771176849707335e-02
      - 1.1215355577505323e-01
      - -4.7203562399790323e-02
      - 6.4047150216850077e-02
      - -8.2003836232647606e-02
      - 3.7699984436756581e-02
      - -1.3745728492178422e-01
      - 2.3569637058332028e-02
      - -2.2518195549159836e-01
      - 1.6017065431567844e-02
      - -3.3849238108059060e-01
      - 1.2117447090558515e-02
      - -4.8293499702811588e-01
      - 1.0115402446214743e-02
      - -6.4828821904598677e-01
      - 9.2857287761024532e-03
      - -8.0980531132096967e-01
      - 9.0752699606343242e-03
      - -8.9646046061893570e-01
      - 9.1895703573481244e-03
      - -8.7178559265499089e-01
      - 9.6099674381496681e-03
      - -7.8497609556634640e-01
      - 9.9879206995551039e-03
      - -7.3254173735264017e-01
      - 9.7307756351548546e-03
      - -7.4095055945724209e-01
      - 9.3907556905952812e-03
      - -8.0221046978473176e-01
      - 9.2634071053515083e-03
      - -9.0126281481954318e-01
      - 9.0965707880393890e-03
      - -9.7772292777300929e-01
      - 9.0565166767232058e-03
      - -9.5554794253494868e-01
      - 9.2655007477132657e-03
      - -8.2490289881853818e-01
      - 1.0100768352726762e-02
      - -6.5598783516841030e-01
      - 1.1750607276521727e-02
      - -4.9936418652616160e-01
      - 1.4583948964667304e-02
      - -3.6957330910853065e-01
      - 2.0545306471433603e-02
      - -2.5846440689370354e-01
      - 3.7518820030696919e-02
      - -1.4969571472681048e-01
      - 1.0108848101217496e-01
      - -6.1111356387893508e-02
      - 2.2499252054679278e-01
      - -2.8011568808075701e-02
      - 1.1173591407938479e+00
      - -9.1250996498164257e-03
      - 1.3958819197838115e+00
      - -5.3043512951784838e-03
      - 3.7172987183149653e-01
      - -1.6238399901172540e-02
      - 1.5030415156391427e-01
      - -3.6378614816852721e-02
      - 7.8039041670625295e-02
      - -6.8582010470840019e-02
      - 4.1503882772181602e-02
      - -1.2736849891402999e-01
      - 2.3538333232684960e-02
      - -2.2614335961635912e-01
      - 1.5462427079906763e-02
      - -3.5220290631899825e-01
      - 1.1648493961269058e-02
      - -5.0758351264543133e-01
      - 9.8511889908257204e-03
      - -6.7944963961590432e-01
      - 9.1766156748710921e-03
      - -8.2825104798213778e-01
      - 9.0795319460043235e-03
      - -8.8883003574129049e-01
      - 9.2432547929562799e-03
      - -8.4190091143889212e-01
      - 9.6169336711802098e-03
      - -7.6653452789534315e-01
      - 9.7040862635580302e-03
      - -7.7020475479573480e-01
      - 9.1824004548704870e-03
      - -8.2034371951753804e-01
      - 9.0221486619736380e-03
      - -9.1768349044746200e-01
      - 9.1039929428001869e-03
      - -1.0290959404025219e+00
      - 9.0004175478489486e-03
      - -1.0582789957353820e+00
      - 8.9891423011017220e-03
      - -9.6567404305680282e-01
      - 9.3999912450939676e-03
      - -7.9447676337845186e-01
      - 1.0527038572582560e-02
      - -6.1674936335832320e-01
      - 1.2285167278453694e-02
      - -4.7007288390074897e-01
      - 1.4959388512931451e-02
      - -3.5512441443246612e-01
      - 2.0091687812791127e-02
      - -2.5540754464498211e-01
      - 3.5817150554283542e-02
      - -1.5382451343799078e-01
      - 1.1834017383780145e-01
      - -5.2454282053605493e-02
      - 2.6955335370853167e-01
      - -2.1505865070045684e-02
      - 9.7593261748757754e-01
      - -9.9219816111237053e-03
      - 7.6547192357901865e+00
      - -4.0825169257547667e-03
      - 5.9914440434565353e-01
      - -1.0934385379308178e-02
      - 2.0833055220658958e-01
      - -2.5544797876397993e-02
      - 9.3973239798281594e-02
      - -5.7073080970823024e-02
      - 4.2724174432875746e-02
      - -1.2466202029939261e-01
      - 2.2427537614770596e-02
      - -2.3849817291840633e-01
      - 1.4606786361226609e-02
      - -3.7325889731751255e-01
      - 1.1204170363603225e-02
      - -5.3313606806675951e-01
      - 9.6664264279342823e-03
      - -7.0209413981322266e-01
      - 9.1351227959779562e-03
      - -8.3745004990550465e-01
      - 9.0833794130886179e-03
      - -8.8007424931675216e-01
      - 9.2319999839093215e-03
      - -8.4101427266750906e-01
      - 9.4027437080550381e-03
      - -8.1679095851072936e-01
      - 9.1982651471546190e-03
      - -8.9192403730482572e-01
      - 8.7863379291949449e-03
      - -9.7855056346064462e-01
      - 8.9601106040964416e-03
      - -1.1108034291517510e+00
      - 9.0953034118440579e-03
      - -1.1806299570947065e+00
      - 8.9167596206221368e-03
      - -1.1288577554289334e+00
      - 8.9646163171245540e-03
      - -9.7607041281396056e-01
      - 9.5517249996382864e-03
      - -7.7519539522147751e-01
      - 1.0763916272172904e-02
      - -5.9444660485818457e-01
      - 1.2388528244233175e-02
      - -4.6091023791539754e-01
      - 1.4829329311590322e-02
      - -3.5550054572089246e-01
      - 1.9316476802955316e-02
      - -2.6354918038032160e-01
      - 3.2238662755345197e-02
      - -1.6450368713065402e-01
      - 1.0178387638579016e-01
      - -5.9513032522771507e-02
      - 2.8160676310321775e-01
      - -2.3368667891515354e-02
      - 6.8137948719919539e-01
      - -7.4043237608979236e-03
      - 2.1677081021706726e+00
      - -4.0825169257547667e-03
      - 9.6828429446622244e-01
      - -7.9883454293463354e-03
      - 3.3778067000818779e-01
      - -1.8296452958776840e-02
      - 1.1012713424410198e-01
      - -5.1339434532362942e-02
      - 4.2193078163128728e-02
      - -1.2934639719891805e-01
      - 2.0849796247658994e-02
      - -2.5752139340050229e-01
      - 1.3846410772487106e-02
      - -3.9501132961156366e-01
      - 1.0897630979309679e-02
      - -5.5042172292818203e-01
      - 9.5907413426751294e-03
      - -7.0732308831278545e-01
      - 9.1408352561085510e-03
      - -8.2604981707907066e-01
      - 9.1278995218893790e-03
      - -8.6785315071101776e-01
      - 9.2266829733360003e-03
      - -8.6074372211415462e-01
      - 9.2409831619656383e-03
      - -9.0403567970277843e-01
      - 8.9645791564348255e-03
      - -1.0347035295982636e+00
      - 8.7929712365879854e-03
      - -1.1454361823194164e+00
      - 9.1305985089769233e-03
      - -1.2742078920823621e+00
      - 9.1042142617443859e-03
      - -1.2481935412875211e+00
      - 8.8985315860213854e-03
      - -1.1397750920942389e+00
      - 9.0031104051283874e-03
      - -9.6328344629334939e-01
      - 9.5911179236369565e-03
      - -7.6301131574111825e-01
      - 1.0642844571430143e-02
      - -5.9702704002420248e-01
      - 1.2120770906235662e-02
      - -4.7201998945292917e-01
      - 1.4424704567579208e-02
      - -3.6837041207106841e-01
      - 1.8700098612517119e-02
      - -2.7332531634520335e-01
      - 3.0303960202343848e-02
      - -1.7338663362772719e-01
      - 8.4045739185599391e-02
      - -6.8942719853947176e-02
      - 2.6657282114179148e-01
      - -2.4644657314558623e-02
      - 3.1510835765894534e+00
      - -6.9849019281066219e-03
      - 6.5049273574319821e+00
      - -4.7702800621167865e-03
      - 1.0834727644497475e+00
      - -4.1894280225390238e-03
      - 4.1348683773770312e-01
      - -1.8648256381970412e-02
      - 1.0536764207332489e-01
      - -5.3272123704905180e-02
      - 3.9437687853005290e-02
      - -1.4042051677981554e-01
      - 1.9237766378276837e-02
      - -2.7718062364316942e-01
      - 1.3302078070767992e-02
      - -4.1220900758168100e-01
      - 1.0818343387599577e-02
      - -5.5400339815306554e-01
      - 9.6864675984830468e-03
      - -6.9200544270492148e-01
      - 9.2448693226821633e-03
      - -7.9258313982720718e-01
      - 9.2135184390030808e-03
      - -8.4194083559182187e-01
      - 9.2290378319375942e-03
      - -8.6976698260718999e-01
      - 9.1260415072594771e-03
      - -9.5866434691792879e-01
      - 8.8804006446702895e-03
      - -1.0941026571060872e+00
      - 8.8797964875475550e-03
      - -1.2048945535106514e+00
      - 9.1468978002377625e-03
      - -1.2724254103359651e+00
      - 8.9802249753631290e-03
      - -1.1836340627652497e+00
      - 8.8799652257232960e-03
      - -1.0783524891312288e+00
      - 9.1038267435211966e-03
      - -9.2258453333646107e-01
      - 9.6005143329042260e-03
      - -7.5248127303585577e-01
      - 1.0462540184554626e-02
      - -6.0978718332237891e-01
      - 1.1799828497338932e-02
      - -4.8675393868849515e-01
      - 1.4117684561402858e-02
      - -3.8089677652984794e-01
      - 1.8689568617624490e-02
      - -2.7829889045759926e-01
      - 3.0110332991676945e-02
      - -1.7549155193650753e-01
      - 7.1349130087979176e-02
      - -7.7026142538646064e-02
      - 1.9988510513655666e-01
      - -2.9626303999656638e-02
      - 8.4094525335208503e-01
      - -9.1102402446475890e-03
      - 6.1237753886321498e+00
      - -4.0825169257547667e-03
      - 1.6909102611898854e+00
      - -6.7072773693865459e-03
      - 2.9060222872968322e-01
      - -2.1601432335573118e-02
      - 9.7449342839386846e-02
      - -6.0707692277510023e-02
      - 3.5128318226281312e-02
      - -1.5702241152753660e-01
      - 1.7978327035971048e-02
      - -2.9716316829999762e-01
      - 1.2972135741630021e-02
      - -4.2230679805745358e-01
      - 1.0926611684804018e-02
      - -5.4572670683442082e-01
      - 9.9394243167690299e-03
      - -6.5910028912336482e-01
      - 9.5170892642893728e-03
      - -7.4125055232891257e-01
      - 9.4183173905225855e-03
      - -7.8837956472434367e-01
      - 9.3234438830669952e-03
      - -8.3396729322086127e-01
      - 9.0908602873452666e-03
      - -9.1941339753528906e-01
      - 8.8553309504785412e-03
      - -1.0259556200619726e+00
      - 8.8775613412684518e-03
      - -1.1227755144981373e+00
      - 8.9860571702642302e-03
      - -1.1450631619152505e+00
      - 8.9169675187790176e-03
      - -1.0794597021434531e+00
      - 8.9903200414028113e-03
      - -9.9988631339674205e-01
      - 9.2156451799928520e-03
      - -8.7891758398800501e-01
      - 9.6126381809093359e-03
      - -7.4358354374596913e-01
      - 1.0327951414885607e-02
      - -6.1562164263755803e-01
      - 1.1728731090174187e-02
      - -4.9307976460795289e-01
      - 1.4212188896869156e-02
      - -3.7987428084700642e-01
      - 1.9203497078539213e-02
      - -2.7351764929762651e-01
      - 3.0903316836217960e-02
      - -1.7353912085962378e-01
      - 6.5301956507944486e-02
      - -8.4050148221375354e-02
      - 1.7839395414126036e-01
      - -3.4162442218051356e-02
      - 7.2680060806126534e-01
      - -8.9396474791535643e-03
      - 1.
      - 0.
      - 1.2263737007433526e+00
      - -8.9320884537474176e-03
      - 2.2636152789709318e-01
      - -2.5397763430053857e-02
      - 7.7516311632616741e-02
      - -7.3900175694955175e-02
      - 2.9881229021335241e-02
      - -1.7786004742175901e-01
      - 1.6917332253984091e-02
      - -3.1338342960570287e-01
      - 1.2825042487910695e-02
      - -4.2901306127159822e-01
      - 1.1106879955347627e-02
      - -5.3508893613681163e-01
      - 1.0267557252323577e-02
      - -6.2078198750601810e-01
      - 9.8628811810199234e-03
      - -6.8268923835054318e-01
      - 9.6874184941051992e-03
      - -7.2347013698264284e-01
      - 9.4821683198973647e-03
      - -7.6555897899305758e-01
      - 9.2097577685446678e-03
      - -8.2507042481961534e-01
      - 9.0180135158619921e-03
      - -9.1939023544776177e-01
      - 8.9352815371610307e-03
      - -1.0062601332296952e+00
      - 8.9470083282042461e-03
      - -1.0328150547988864e+00
      - 9.0041800398750205e-03
      - -1.0106726878790984e+00
      - 9.1032483615716333e-03
      - -9.5150929723216771e-01
      - 9.2356390105956636e-03
      - -8.5546568645152354e-01
      - 9.5820198680995911e-03
      - -7.4032106833884537e-01
      - 1.0336779490160927e-02
      - -6.1326579426167072e-01
      - 1.1888667060846268e-02
      - -4.8515629201913280e-01
      - 1.4755469135091659e-02
      - -3.6804197776930747e-01
      - 2.0318339514053183e-02
      - -2.6078182399496980e-01
      - 3.2644014383103000e-02
      - -1.6833375676862808e-01
      - 6.2500684961346781e-02
      - -8.8542637028574608e-02
      - 1.7109776495512422e-01
      - -3.5936233899407928e-02
      - 1.2057200212717349e+00
      - -1.0710812855630579e-02
      - 3.1084035706307054e+00
      - -5.9059667841983403e-03
      - 1.1947550115224044e+00
      - -6.3521141445941169e-03
      - 1.8459952406871327e-01
      - -3.3320214094402750e-02
      - 6.0063061530205179e-02
      - -9.1304862985141413e-02
      - 2.6124691582275834e-02
      - -1.9910803065973617e-01
      - 1.6062765900929157e-02
      - -3.2796741246305144e-01
      - 1.2574762178659240e-02
      - -4.3899542662547630e-01
      - 1.1092271024320956e-02
      - -5.3445408811407935e-01
      - 1.0397746220095131e-02
      - -6.0594789680655092e-01
      - 9.9918239700375680e-03
      - -6.5940509392984525e-01
      - 9.7265660223358908e-03
      - -6.9784836599699163e-01
      - 9.5376283492236077e-03
      - -7.3042289419662387e-01
      - 9.3973170455657826e-03
      - -7.8112566692492813e-01
      - 9.1631363690461050e-03
      - -8.7168855191159811e-01
      - 8.9947413603606984e-03
      - -9.5845445408422714e-01
      - 9.0127820363154667e-03
      - -1.0112466121564123e+00
      - 9.0746977830615579e-03
      - -1.0104488437684862e+00
      - 9.0740873457440859e-03
      - -9.5294507586676713e-01
      - 9.1725874047577736e-03
      - -8.5872463833459933e-01
      - 9.5567783204039188e-03
      - -7.3231139362819664e-01
      - 1.0492049895120014e-02
      - -5.9491059544069125e-01
      - 1.2272183566913937e-02
      - -4.6342915009115870e-01
      - 1.5468821882370341e-02
      - -3.4877114414893745e-01
      - 2.1602314695750677e-02
      - -2.4588474663859947e-01
      - 3.4548855257881220e-02
      - -1.5820093566860102e-01
      - 6.5794896362632041e-02
      - -8.5437962671695844e-02
      - 2.0501057750388216e-01
      - -3.1557961563764260e-02
      - 8.0112838185817015e-01
      - -9.7604141189720408e-03
      - 1.6330067703019065e+01
      - -4.0825169257547667e-03
      - 9.2599146384527464e-01
      - -1.1281662667848264e-02
      - 1.3885709865451468e-01
      - -3.9757101629765125e-02
      - 5.0812940557092921e-02
      - -1.0385233479292914e-01
      - 2.4299944569476883e-02
      - -2.1198097145090775e-01
      - 1.5527313999749314e-02
      - -3.3747788855041810e-01
      - 1.2263456380429100e-02
      - -4.5170193276974185e-01
      - 1.0830555475179219e-02
      - -5.5213160960619312e-01
      - 1.0134482034941036e-02
      - -6.3188647505087892e-01
      - 9.7265278391635620e-03
      - -6.9322439099774313e-01
      - 9.4810228062583851e-03
      - -7.3838490045824501e-01
      - 9.3269664859713438e-03
      - -7.7073076657941342e-01
      - 9.2118835958347536e-03
      - -8.2876952328269016e-01
      - 9.0652411048955349e-03
      - -9.1927271014271983e-01
      - 8.9715128503452118e-03
      - -1.0088060986882785e+00
      - 9.0050697105492471e-03
      - -1.0608282793932029e+00
      - 9.0414249902396691e-03
      - -1.0481237261139540e+00
      - 9.0015145645349799e-03
      - -9.6705521345440426e-01
      - 9.1734534916265917e-03
      - -8.4650228433733210e-01
      - 9.7550161788788805e-03
      - -7.0122275449120430e-01
      - 1.0932734670331646e-02
      - -5.5538565443651522e-01
      - 1.3062795677920784e-02
      - -4.2707460646741952e-01
      - 1.6875887836370437e-02
      - -3.1681047982258770e-01
      - 2.4101940546579010e-02
      - -2.2068580332366872e-01
      - 3.8751463222016364e-02
      - -1.4105726370130067e-01
      - 7.3159609120596256e-02
      - -7.8171042345357100e-02
      - 1.9892691542262070e-01
      - -2.9182578492498456e-02
      - 1.1745052636088484e+00
      - -8.0257859679937985e-03
      - 1.
      - 0.
      - 6.7743045194532669e-01
      - -1.0342104899698655e-02
      - 1.3034223502601749e-01
      - -4.3273622028637812e-02
      - 4.8396784585620529e-02
      - -1.0916701376363139e-01
      - 2.4554369196308077e-02
      - -2.0903257268663047e-01
      - 1.5957442297017288e-02
      - -3.3022464068133389e-01
      - 1.2265676368740121e-02
      - -4.5487526569794062e-01
      - 1.0581039790359303e-02
      - -5.6919680718391474e-01
      - 9.7712862742586806e-03
      - -6.7294360006505827e-01
      - 9.3716729213697333e-03
      - -7.6060122562919896e-01
      - 9.1670714229806546e-03
      - -8.2875749514337049e-01
      - 9.0565093371887725e-03
      - -8.8650818993286140e-01
      - 8.9927793155633890e-03
      - -9.5984040337562160e-01
      - 8.9601866312100115e-03
      - -1.0513839685493109e+00
      - 8.9706534258689029e-03
      - -1.1209048246414322e+00
      - 8.9915709913075108e-03
      - -1.1289434394918580e+00
      - 8.9897909461324008e-03
      - -1.0627393739357245e+00
      - 9.0489413975631053e-03
      - -9.3933290255853619e-01
      - 9.3869994595349414e-03
      - -7.8734756501774561e-01
      - 1.0238985882502244e-02
      - -6.2699095585584852e-01
      - 1.1917777300855881e-02
      - -4.8806277491330047e-01
      - 1.4791158246896483e-02
      - -3.6895114434919413e-01
      - 1.9759322047736599e-02
      - -2.6929222578181716e-01
      - 2.8636730168165581e-02
      - -1.8721262347438250e-01
      - 4.4816751016600861e-02
      - -1.2162743363810280e-01
      - 8.8757045142441426e-02
      - -6.6493819652545694e-02
      - 2.3309658019791660e-01
      - -2.6033003065103987e-02
      - 3.4296926369754859e+00
      - -5.7733159389087348e-03
      - 7.6547192357901865e+00
      - -4.0825169257547667e-03
      - 7.8814988570461819e-01
      - -1.0009503548448652e-02
      - 1.4248410269843428e-01
      - -4.0498731456984974e-02
      - 5.4363151333695764e-02
      - -9.9984707932933264e-02
      - 2.8375327488622572e-02
      - -1.8820172417891326e-01
      - 1.7729156407121936e-02
      - -2.9963131237262419e-01
      - 1.3022109541900492e-02
      - -4.2724846894466612e-01
      - 1.0766760710396927e-02
      - -5.5525136047379708e-01
      - 9.6810743355093577e-03
      - -6.8177739738408816e-01
      - 9.1870388757289943e-03
      - -8.0158751598510625e-01
      - 8.9979268816343331e-03
      - -9.0865684586542739e-01
      - 8.9719310664269480e-03
      - -1.0089452370233423e+00
      - 9.0022585562169830e-03
      - -1.1036228854408650e+00
      - 9.0612208366722975e-03
      - -1.1813322012848917e+00
      - 9.0423344294405621e-03
      - -1.1921856786161480e+00
      - 9.0119546128711852e-03
      - -1.1253050489984864e+00
      - 9.0406791698941641e-03
      - -9.9470795821094138e-01
      - 9.3022236841844262e-03
      - -8.3223274412924397e-01
      - 1.0018220458531771e-02
      - -6.6712599007954476e-01
      - 1.1463256311922469e-02
      - -5.2269449230298171e-01
      - 1.3974510147232210e-02
      - -3.9906542810446116e-01
      - 1.8207166230644323e-02
      - -2.9670064291410431e-01
      - 2.4981100867880378e-02
      - -2.1262622368528272e-01
      - 3.6186649309320175e-02
      - -1.4869395756610571e-01
      - 5.6897637528183539e-02
      - -9.6895728416537777e-02
      - 1.1475704424736648e-01
      - -5.0931088854385367e-02
      - 3.4232733864082288e-01
      - -2.0214429346740594e-02
      - 6.2807952703919492e+00
      - -4.0825169257547676e-03
      - 7.9016456627511609e+00
      - -4.0825169257547667e-03
      - 6.1066837998566870e+00
      - -6.0049057365257428e-03
      - 1.8016755677681681e-01
      - -3.3706347080329484e-02
      - 7.2587196736811327e-02
      - -7.8972450476426176e-02
      - 3.7455665821716146e-02
      - -1.4774137678937121e-01
      - 2.2428955822545487e-02
      - -2.4325024984597407e-01
      - 1.5405581048547274e-02
      - -3.6034629759351816e-01
      - 1.1969998229364799e-02
      - -4.8644317204398235e-01
      - 1.0208599615130163e-02
      - -6.2240998151146698e-01
      - 9.3414041031404296e-03
      - -7.5670417593653183e-01
      - 8.9670432839366356e-03
      - -8.8873651263300035e-01
      - 8.8608855988812508e-03
      - -1.0021705916762691e+00
      - 8.8928679606332696e-03
      - -1.0895925700834850e+00
      - 8.9179406011185743e-03
      - -1.1174380226865099e+00
      - 8.9114340937564915e-03
      - -1.0748398501629048e+00
      - 8.9850710736181592e-03
      - -9.6307263008735955e-01
      - 9.3227862196658406e-03
      - -8.1766817267627045e-01
      - 1.0074657913157726e-02
      - -6.6465591023765025e-01
      - 1.1549793802228309e-02
      - -5.2359507978864084e-01
      - 1.3996888188408021e-02
      - -4.0214202844498304e-01
      - 1.7929426219009413e-02
      - -3.0306915962171466e-01
      - 2.4197135218011395e-02
      - -2.2168084444305050e-01
      - 3.3843079925784600e-02
      - -1.5936593526785550e-01
      - 4.9465112384615262e-02
      - -1.1006069947430872e-01
      - 8.3866566172356286e-02
      - -7.0039764962740489e-02
      - 1.9636356479161621e-01
      - -3.7135622828174487e-02
      - 6.8419120753163565e-01
      - -1.2201409867647502e-02
      - 3.4020974381289726e+00
      - -4.0825169257547676e-03
      - 1.
      - 0.
      - 1.
      - 0.
      - 3.5436976592843078e-01
      - -2.2738726647074308e-02
      - 1.2394825414122598e-01
      - -5.1905397225874068e-02
      - 5.7706483627069961e-02
      - -9.9988024180624135e-02
      - 3.3587353790810535e-02
      - -1.6843162263323730e-01
      - 2.1636815134268017e-02
      - -2.6031071981245069e-01
      - 1.5448413568205534e-02
      - -3.6983708061131626e-01
      - 1.2174356454018286e-02
      - -4.9009799512089169e-01
      - 1.0449052992553004e-02
      - -6.1537067921304456e-01
      - 9.5637224340296180e-03
      - -7.3897799359204341e-01
      - 9.1617488731368553e-03
      - -8.4317590464230574e-01
      - 9.0462563769141725e-03
      - -9.0195141353546182e-01
      - 9.0738577911196900e-03
      - -8.9980608323712041e-01
      - 9.2695563858204537e-03
      - -8.3974857905988509e-01
      - 9.7197871775051570e-03
      - -7.3465553413096107e-01
      - 1.0637555873087607e-02
      - -6.1257571084840612e-01
      - 1.2242464956319374e-02
      - -4.9207118796130972e-01
      - 1.4900760471377032e-02
      - -3.7992816658281020e-01
      - 1.8951479783046236e-02
      - -2.8881739331366080e-01
      - 2.5040927583794417e-02
      - -2.1344093709719544e-01
      - 3.4772498014742532e-02
      - -1.5366778231001738e-01
      - 4.9488756807815740e-02
      - -1.0912600801168756e-01
      - 7.5483885452548014e-02
      - -7.4098756154493753e-02
      - 1.3956777504971854e-01
      - -4.3317185116264312e-02
      - 3.3370543946177528e-01
      - -1.9343791974134241e-02
      - 1.0817138996367865e+00
      - -1.0402482001507098e-02
      - 1.
      - 0.
      - 1.
      - 0.
      - 1.
      - 0.
      - 6.5316724493651523e-01
      - -1.0352700832243766e-02
      - 2.3527088699057305e-01
      - -2.8750102390248028e-02
      - 1.0589559191438495e-01
      - -5.7568373617723483e-02
      - 5.9537456219121085e-02
      - -9.5310536788380001e-02
      - 3.6544894002382609e-02
      - -1.5360976204178153e-01
      - 2.4435116732738491e-02
      - -2.2342452610552213e-01
      - 1.8040449598609013e-02
      - -3.0357777033971300e-01
      - 1.4347328131871021e-02
      - -3.8847997348318081e-01
      - 1.2340002153670652e-02
      - -4.7019583239547175e-01
      - 1.1332497678375530e-02
      - -5.3312356540700145e-01
      - 1.0976936830697366e-02
      - -5.6650598866125268e-01
      - 1.1043147742482540e-02
      - -5.6278365603933089e-01
      - 1.1601952764605758e-02
      - -5.2716469557117118e-01
      - 1.2738150523733418e-02
      - -4.6805739652434009e-01
      - 1.4423444732045319e-02
      - -3.9580504525709570e-01
      - 1.6997044748378556e-02
      - -3.2478944599478737e-01
      - 2.1107963135629754e-02
      - -2.5570503161948921e-01
      - 2.6973584154826809e-02
      - -1.9461171231865995e-01
      - 3.6514784921153225e-02
      - -1.4457420509781935e-01
      - 5.1060803624541448e-02
      - -1.0177354277104228e-01
      - 7.5086963606358748e-02
      - -7.1425222681155323e-02
      - 1.1955398329308130e-01
      - -4.7777756856691722e-02
      - 2.5292947381802755e-01
      - -2.5752435925905506e-02
      - 5.1297176906466124e-01
      - -1.1379423743751069e-02
      - 2.4583835782087951e+00
      - -4.7528749178703368e-03
      - 1.
      - 0.
      - 1.
      - 0.
      - 1.
      - 0.
      - 4.2538092194313188e+00
      - -6.6643011104424001e-03
      - 6.1654432262170566e-01
      - -1.0964213203956000e-02
      - 2.1602544608191854e-01
      - -2.7604451585167823e-02
      - 1.0864826383686564e-01
      - -5.1553601190592747e-02
      - 6.1737350291149698e-02
      - -8.6771845834210895e-02
      - 4.0364909928613746e-02
      - -1.2839203275243580e-01
      - 2.8612152561722906e-02
      - -1.7577589804768851e-01
      - 2.2694195330940446e-02
      - -2.2305443764921440e-01
      - 1.9225169603306887e-02
      - -2.6664028561813097e-01
      - 1.7635987363975612e-02
      - -2.9484431541339895e-01
      - 1.6989234794794677e-02
      - -3.0750543293969695e-01
      - 1.7168678155634391e-02
      - -3.0518012168766356e-01
      - 1.8296930547594088e-02
      - -2.8923177911951814e-01
      - 2.0057933343472379e-02
      - -2.6323129112972693e-01
      - 2.2263524117221829e-02
      - -2.3372358935880064e-01
      - 2.5802018189541493e-02
      - -2.0102782405108272e-01
      - 3.1346829126865844e-02
      - -1.6369105191188499e-01
      - 4.0373375387709659e-02
      - -1.2766599609265633e-01
      - 5.5556842332466098e-02
      - -9.3965139331644326e-02
      - 7.9579095443036790e-02
      - -6.5683259060425186e-02
      - 1.2393037386965705e-01
      - -4.5926531049863745e-02
      - 2.0540333524789875e-01
      - -2.8718809656577044e-02
      - 5.0190948322325490e-01
      - -1.5693036508780435e-02
      - 1.5912073332956527e+00
      - -5.6753061554211609e-03
      - 2.3552982263969806e+00
      - -4.0825169257547667e-03
      - 1.
      - 0.
      - 1.
      - 0.
      - 1.
      - 0.
      - 1.
      - 0.
      - 6.4460793564548942e+00
      - -4.0825169257547667e-03
      - 4.2655553896960768e-01
      - -1.5121393856472593e-02
      - 1.9235291492922035e-01
      - -3.1369554543040350e-02
      - 9.9074653779864102e-02
      - -5.3330234885471180e-02
      - 6.6059337903862758e-02
      - -7.9228266914997805e-02
      - 4.6793070342535159e-02
      - -1.0837665033583997e-01
      - 3.8155093701435369e-02
      - -1.3397906785967689e-01
      - 3.2475493672729311e-02
      - -1.5751318066969960e-01
      - 2.9280715938901667e-02
      - -1.7510551348168438e-01
      - 2.8337019777137335e-02
      - -1.8262689734335766e-01
      - 2.8843043729560394e-02
      - -1.8053534074685540e-01
      - 3.0495643608517826e-02
      - -1.6987649098197538e-01
      - 3.4411445280974971e-02
      - -1.5315731360838736e-01
      - 3.8312780160134272e-02
      - -1.3543312368073065e-01
      - 4.4941565784027020e-02
      - -1.1648029922513764e-01
      - 5.5227542355114533e-02
      - -9.3951254136442341e-02
      - 7.1958047886264295e-02
      - -7.2576887098086171e-02
      - 9.6920183237295565e-02
      - -5.2364359666723509e-02
      - 1.5261325299611461e-01
      - -3.6382999514273727e-02
      - 2.8569172361868639e-01
      - -2.1503063731033133e-02
      - 8.0531623469345792e-01
      - -1.3019279127544236e-02
      - 8.6984809647906935e+00
      - -4.4942151651418587e-03
      - 4.1517121278862037e+00
      - -4.0825169257547676e-03
      - 1.
      - 0.
      - 1.
      - 0.
      - 1.
      - 0.
      - 1.
      - 0.
      - 1.
      - 0.
      - 1.
      - 0.
      - 2.2855909048659870e+00
      - -5.7901636256605009e-03
      - 5.8099546031975102e-01
      - -9.0538459233161211e-03
      - 3.8443818204485197e-01
      - -1.6005442979134005e-02
      - 2.4797937345246546e-01
      - -2.2119760111959919e-02
      - 2.0937992323957344e-01
      - -2.6845995824700642e-02
      - 1.6186917948672025e-01
      - -3.1845063244354099e-02
      - 1.3019713925899315e-01
      - -4.3748408743342682e-02
      - 1.0996886744491646e-01
      - -4.7282947372399249e-02
      - 1.0102754437895323e-01
      - -5.3138804550923083e-02
      - 9.5859856188538567e-02
      - -5.6622819386299920e-02
      - 8.7696849394196696e-02
      - -6.0338355611520469e-02
      - 9.5082200380204471e-02
      - -5.6295001438439733e-02
      - 1.0640768770340518e-01
      - -5.1366537777357127e-02
      - 1.2410541878473520e-01
      - -4.2632279776202958e-02
      - 1.6549655953012565e-01
      - -3.3171027081821521e-02
      - 2.5277062613373447e-01
      - -2.2462882975751206e-02
      - 3.5213484965517022e-01
      - -1.6069086972597603e-02
      - 5.9285407782360333e-01
      - -1.1432202800698484e-02
      - 5.9585189636506186e-01
      - -9.0072945000518514e-03
      - 2.8851969640687103e+00
      - -5.7703939281374206e-03
      - 1.
      - 0.
      - 1.
      - 0.
      - 1.
      - 0.
      - 1.
      - 0.
   output_scale:
      - 5.2631578947368418e-01
      - 4.9999999999999994e-01
      - 5.2631578947368418e-01
      - 4.9999999999999994e-01
      - 5.2631578947368418e-01
      - 4.9999999999999994e-01
      - 5.2631578947368418e-01
      - 4.9999999999999994e-01
      - 5.2631578947368418e-01
      - 4.9999999999999994e-01
      - 5.2631578947368418e-01
      - 4.9999999999999994e-01
      - 5.2631578947368418e-01
      - 4.9999999999999994e-01
      - 5.2631578947368418e-01
      - 4.9999999999999994e-01
      - 5.2631578947368418e-01
      - 4.9999999999999994e-01
      - 5.2631578947368418e-01
      - 4.9999999999999994e-01
   inv_output_scale:
      - 1.8999999999999999e+00
      - -9.4999999999999996e-01
      - 1.8999999999999999e+00
      - -9.4999999999999996e-01
      - 1.8999999999999999e+00
      - -9.4999999999999996e-01
      - 1.8999999999999999e+00
      - -9.4999999999999996e-01
      - 1.8999999999999999e+00
      - -9.4999999999999996e-01
      - 1.8999999999999999e+00
      - -9.4999999999999996e-01
      - 1.8999999999999999e+00
      - -9.4999999999999996e-01
      - 1.8999999999999999e+00
      - -9.4999999999999996e-01
      - 1.8999999999999999e+00
      - -9.4999999999999996e-01
      - 1.8999999999999999e+00
      - -9.4999999999999996e-01
   weights:
      -
         - -2.4205505044311306e-03
         - 1.4350020023881954e-03
         - 6.4644512343053386e-04
         - 4.8633238430626955e-04
         - 3.7031664159510754e-04
         - -1.6347347408353825e-03
         - -1.2924630049669246e-03
         - 1.7709373011530339e-03
         - 7.3201703133273985e-04
         - 8.4176117600069666e-04
         - -2.2103004689572893e-03
         - 2.5701767177842448e-03
         - -4.6055566270852285e-04
         - -1.2959532608692174e-03
         - 1.2146696274049592e-03
         - 1.3501453984548978e-03
         - 1.2006486140541946e-03
         - -7.9047858364686484e-04
         - 5.2702745043081700e-04
         - 1.4969797402949717e-03
         - 1.8790840525207588e-03
         - -8.0425485038962896e-05
         - -2.1396785201270195e-03
         - 3.8027502702400544e-04
         - 5.4070604485474824e-04
         - 1.9483366631563347e-03
         - -1.1016644708152256e-03
         - 1.9584281285844650e-03
         - 1.8217483075673349e-03
         - 3.5326222553837576e-04
         - -2.4665188888353640e-04
         - -1.5093692338370161e-03
         - 2.4117844440002967e-03
         - -1.0806241320293882e-03
         - -5.1099068755931939e-04
         - 1.1185571773340256e-03
         - 2.2493344026269821e-03
         - -5.7268389394363574e-04
         - 1.0421095318872201e-03
         - -4.2355703764858566e-04
         - -6.8650041093578490e-04
         - -5.9625754962180889e-04
         - -2.3240753129875041e-03
         - 2.4844909353482392e-03
         - -4.5812788503573639e-04
         - -1.3234199368159457e-03
         - -1.3117890958410138e-03
         - -1.2971892833947409e-03
         - 1.9286432407072259e-03
         - 2.4776955337968321e-03
         - 4.4171985651576075e-04
         - -6.4402036669152440e-04
         - -1.9063480179137810e-04
         - -6.2389818836504937e-05
         - -1.3084339282737141e-03
         - 1.2973360679489304e-03
         - 2.4794315242453327e-03
         - -1.6896887634146917e-04
         - 2.3502187914656940e-03
         - -1.0219549636833831e-03
         - 1.7979035016160393e-03
         - -2.3143435270049804e-03
         - -6.7635147751573383e-04
         - 1.7444478761288152e-03
         - 4.0994780195165853e-04
         - -1.1371349919335483e-03
         - -2.1511456119164040e-03
         - 2.5932848588354198e-03
         - -1.2192245718567042e-03
         - 6.2259539968795340e-04
         - -2.4739335763265301e-03
         - -5.5506389869876402e-04
         - 9.3319818898351112e-04
         - 2.1824289240875705e-03
         - -2.4770198212941850e-03
         - 1.8768121412062618e-03
         - -1.7568050742993696e-03
         - 1.5740954205610838e-03
         - 7.9169482570736166e-05
         - -1.6393361948915856e-03
         - 8.5506088794419836e-04
         - -1.9247983747517560e-05
         - 6.6870247944575878e-04
         - -4.2905209528778420e-04
         - -3.3062849336926858e-04
         - -2.3421222666677173e-03
         - 1.2299060377926766e-03
         - -2.4927376995615520e-03
         - -1.7246591510148518e-03
         - -1.2900388111961947e-03
         - 2.5464509944050323e-03
         - -1.7040511063194179e-03
         - 1.5449500455183046e-03
         - 9.8159894791508451e-04
         - -1.6395223755152628e-03
         - -6.2404130075466161e-04
         - -2.2485511052531527e-03
         - 1.8022481891010835e-03
         - -4.4152206997778156e-04
         - -1.8918223063722698e-03
         - 5.1696284291902759e-04
         - -1.1462587045603955e-03
         - 1.3271121066285687e-03
         - 2.0349253709197814e-03
         - -2.0789439996259971e-04
         - -2.6278472881858567e-03
         - -6.2137547830144280e-04
         - -5.6314481290179158e-04
         - -5.8884356465172384e-04
         - 1.1347947913265721e-03
         - 1.8158400495619021e-03
         - 1.2053427000363397e-03
         - -3.3871773124435558e-04
         - 1.5782343508407672e-03
         - 2.3643370250245712e-03
         - 1.4576160908754509e-03
         - 1.2876331728093708e-03
         - -2.2223573664666742e-03
         - -1.2420822153991372e-03
         - 1.1362399353808165e-03
         - 1.7100964781361510e-03
         - -5.0338429278175907e-04
         - -3.0546605958209138e-04
         - 4.3034523465551626e-04
         - -6.4746045629228421e-04
         - -1.6978176696383109e-03
         - -8.7716089684717268e-04
         - 1.3099967938766299e-03
         - 2.5309688048468135e-03
         - 2.2139388332729913e-03
         - 1.2271952495767201e-03
         - -1.3760202161781077e-03
         - 2.2781054343213652e-03
         - 1.1187243823972766e-03
         - -5.9168778960385607e-04
         - 9.0443563466739970e-05
         - 1.1737100848109752e-03
         - 1.6946094836335348e-03
         - 1.4360221092004171e-03
         - 1.5096901934200362e-03
         - 1.2055304274241829e-03
         - -2.3970962661184411e-03
         - 1.1189925039224962e-05
         - 2.4339091520092721e-03
         - 6.8246957020225065e-04
         - -1.9466637872566574e-03
         - 1.9128338834277757e-03
         - 1.1872493140987470e-03
         - -1.6671804626521374e-03
         - -9.2280886061430151e-04
         - -9.0378716211687784e-04
         - 1.5028303414525847e-05
         - 1.5830882291244469e-03
         - -2.0735257460117373e-03
         - -1.3935019467597616e-03
         - 4.7332415432493305e-04
         - 2.0341573810042654e-03
         - 1.5534700032835617e-04
         - 1.6897684656261975e-04
         - 2.0980553297524130e-03
         - -1.2725018011645519e-03
         - 1.5074175020667185e-03
         - -1.1927308437742850e-03
         - 6.3270803180099126e-04
         - 1.2009875370347731e-03
         - -1.4028178347273699e-03
         - -1.8407066614731700e-03
         - 9.7811846455308940e-04
         - -2.5555596028841446e-04
         - 1.1701808567341364e-03
         - 7.0336764253263877e-06
         - -1.0000431699142614e-03
         - -2.2141343502134940e-03
         - -1.6687057698110078e-03
         - 1.1007261996600771e-03
         - -1.6939208097205450e-03
         - 3.5574447253273496e-04
         - -2.6434521257609127e-03
         - 7.4932379401512360e-04
         - -1.0962931057807044e-03
         - 2.0796859914649882e-03
         - -1.3826350646334250e-03
         - 1.2133118845778682e-04
         - 1.2703957711136737e-03
         - -1.9114526515396119e-03
         - -1.3823455460982696e-03
         - 2.3022513274066556e-03
         - 2.5358567994682784e-03
         - -1.5442369473697430e-03
         - 1.7981362358265537e-04
         - 4.9164853528702494e-05
         - -1.8031647956547069e-03
         - -2.4879459553097151e-03
         - 2.1383652794560544e-03
         - -1.7063002883048932e-03
         - -1.2903812449038034e-03
         - 2.0691899488953155e-03
         - 2.3874476647723678e-03
         - -1.2440421304832857e-03
         - 1.5220685602870521e-03
         - -1.2804791524286005e-03
         - 6.7518982672510366e-05
         - 2.2473935682637883e-03
         - 2.5395760880831206e-03
         - 2.0356583424529263e-03
         - -1.6138746992204096e-03
         - -1.3125068490776859e-03
         - -2.4967956905256933e-04
         - 9.9626523151477467e-04
         - -2.2087560357629669e-03
         - -1.1333992639877570e-03
         - -2.4273224828371152e-04
         - 7.7630524580477305e-04
         - -1.1719426692489087e-03
         - -2.1526167959436096e-03
         - 6.9756280721370938e-04
         - -1.7932330600998283e-03
         - 2.2032823546913132e-03
         - 1.6967791950376206e-03
         - -4.6670675607554966e-04
         - 1.9657832172314212e-03
         - 4.7572160320977859e-04
         - 2.4196172310331802e-05
         - -1.8023716354937927e-03
         - -5.5313062079023116e-04
         - -7.7810070075995657e-04
         - 7.8924255296625189e-04
         - -1.8539894772010110e-03
         - 5.8732082178827090e-04
         - -1.4364542198512952e-05
         - -3.7005197919411916e-04
         - -1.3051920236366695e-04
         - 5.1243703799553448e-04
         - -4.5621173344591185e-04
         - -2.0872351248095214e-03
         - 1.5649932360349626e-03
         - 3.6981424496011366e-04
         - 7.2743027414240500e-04
         - 2.5460278507528199e-03
         - 2.5365933194760764e-03
         - 2.5158350421405724e-03
         - -2.3615546120955722e-03
         - -1.2583764613015537e-03
         - -1.6633140146560046e-03
         - -1.8493254841341802e-03
         - 1.9246471609057954e-03
         - -1.5308133917483928e-03
         - 8.5661101783838774e-04
         - 1.1633602907073620e-03
         - 1.1636892052986827e-03
         - 2.3952945647002163e-03
         - -2.2650504756487467e-03
         - 2.5287807167435040e-03
         - -1.3288081774388873e-03
         - -7.6078269073251144e-04
         - -2.3974205932407581e-03
         - -6.1567097556772905e-04
         - -2.4550451659969101e-03
         - -2.0194665297914079e-03
         - -4.5393484599494074e-04
         - 2.0670526686705610e-03
         - -1.4286995200401475e-03
         - 1.5193755833401176e-03
         - 1.6001437509212948e-03
         - 6.6061854525575404e-04
         - 7.5144454020521138e-04
         - -1.5832582881968548e-03
         - -8.5068829274626879e-04
         - 2.3305822256111386e-03
         - -1.2878606820544620e-03
         - 4.1478542558612589e-04
         - -1.2017254463562359e-03
         - -4.4069246579095638e-04
         - -1.5635863704909340e-03
         - -2.0983871093812170e-05
         - 1.0026498544624348e-03
         - 1.1317690796402345e-04
         - -5.1452835386936024e-04
         - 2.1118045128503617e-03
         - 1.0621802801247557e-03
         - 2.5321294644884951e-03
         - -1.1390643432238222e-03
         - -2.0036757981347496e-03
         - 1.7314170889499391e-03
         - 6.9629191236917293e-06
         - 2.0688158345708263e-04
         - -1.2167102806306606e-03
         - -8.4588001560312830e-04
         - -2.3932734020564923e-03
         - -1.3774006877800213e-03
         - -1.7264958234849092e-03
         - -2.4408056547225868e-03
         - -1.3030197702342545e-03
         - 1.4223462354478059e-03
         - -1.8150743848009752e-03
         - 1.0607679553529001e-03
         - 1.1457832214779072e-03
         - -7.8212374879075978e-04
         - 2.3380798146733057e-03
         - 1.8903937641332677e-03
         - -2.4637757559718390e-03
         - -1.7327611006138013e-03
         - -3.2378306990859938e-04
         - 1.6180144935055938e-04
         - -1.2961637534946498e-03
         - -1.5411780484630919e-03
         - -2.1537375971565132e-03
         - 1.2317466357031616e-04
         - 1.5599706515948475e-03
         - 1.1229033724529734e-03
         - 1.5818133332635399e-03
         - -1.9540008608226636e-03
         - -2.2558202760087150e-03
         - 1.9116751418444995e-03
         - 8.3133094378275629e-04
         - -2.2891370683491056e-03
         - 2.4031849968570462e-03
         - -1.3613195690988339e-04
         - 2.4622165196933540e-03
         - 2.2469265872351492e-03
         - 2.4494425977865169e-03
         - -2.9295322001577306e-04
         - 1.6263391547587558e-03
         - -1.6648528357311662e-03
         - 1.8727763036764215e-03
         - 1.8520790954860090e-03
         - 6.4534836527017534e-04
         - -1.7195487636912942e-03
         - -4.6828258247767459e-04
         - -6.0614827423209833e-04
         - 4.4961056154226058e-04
         - -2.0485627850883813e-03
         - 2.2165655611570000e-03
         - -1.6492413479823576e-03
         - 1.4803770786422232e-04
         - -3.0716332438940645e-04
         - 1.2275297819493308e-03
         - -7.9261346353845356e-04
         - -8.7650038045191661e-04
         - 1.7467783934365863e-03
         - 2.1873663002375428e-03
         - 1.7071729699708561e-03
         - 1.9790759716433563e-05
         - -1.6041026222094910e-03
         - 1.5395465515133505e-03
         - -2.2511662081614524e-05
         - 1.5536478704625903e-03
         - 1.4058071744813801e-03
         - 1.2250369605975531e-04
         - 5.7198692410962270e-05
         - -2.0377801436181173e-03
         - -4.7540037857234395e-04
         - 2.5022676434635475e-03
         - 3.3698534705258745e-04
         - -4.5652052671102329e-04
         - -6.4871204061360674e-04
         - -1.4368690111675427e-03
         - -1.8460580862454084e-03
         - 1.6788573759091644e-03
         - -2.3169259312089808e-05
         - 1.0241894484573474e-03
         - -5.2059452859064444e-04
         - 1.9369844312283346e-03
         - 1.3613665550706595e-03
         - -1.4609165515413313e-03
         - 1.6353555721958823e-03
         - -1.7484303080780345e-03
         - -9.8769956475628002e-04
         - 1.9895852174061689e-03
         - 1.3500322622759257e-03
         - -4.2483851452518773e-04
         - 1.1806367047931671e-03
         - -2.1505342640950440e-03
         - -1.4969507753817850e-03
         - -1.0560767198640789e-03
         - -9.2839625224441541e-04
         - -5.2891810164221848e-04
         - 3.8078254351640633e-04
         - -1.8593186183068571e-03
         - 1.4254308029464551e-03
         - -1.5216629997243951e-03
         - -1.8371929884189002e-03
         - -1.2258620193153433e-03
         - 3.8351729596315610e-04
         - 2.1099175712824109e-03
         - 1.7863209992656887e-03
         - -1.2247747008538195e-03
         - 1.8162513154208419e-03
         - 3.5836765706962333e-04
         - -1.4583466846682103e-03
         - -9.4678862064250565e-04
         - -2.0185694331992534e-03
         - 5.0007426908329296e-04
         - 3.3419538479413874e-04
         - -2.2175583327624817e-03
         - -1.0735187867801201e-03
         - 9.4736631819714132e-04
         - 8.3970004763847137e-04
         - 6.2358923090343843e-04
         - 9.6438103725346653e-04
         - -2.2164555538606943e-03
         - 5.4420167816968225e-05
         - -1.8052510358768502e-03
         - 1.9240928100986337e-03
         - -2.1490698847570181e-03
         - -2.4642684111729599e-04
         - -8.7907366447753643e-04
         - 4.6436471972906502e-04
         - -1.1994013800273768e-06
         - -2.1401963432074326e-03
         - -6.8970606255694563e-04
         - 3.8017699352059709e-04
         - -2.0592862362326545e-03
         - -2.5428084608797009e-03
         - 1.4869682197062102e-03
         - -1.3405091543033452e-03
         - 1.6968982477163824e-03
         - 1.7704015934604858e-03
         - 6.4125698621222916e-04
         - -1.9799294755912370e-03
         - -2.4456948771803062e-03
         - 4.5459415416279625e-04
         - 1.2540231720655629e-03
         - -9.8573991260705852e-04
         - -5.0831974461482338e-04
         - 1.4804685750113480e-03
         - 1.4618755857651791e-03
         - 5.2373276336358714e-04
         - 1.0008846415550826e-03
         - 1.0255819283968911e-03
         - 5.8217573122884710e-04
         - -1.4314002514243861e-03
         - 2.4823145945763680e-03
         - 1.3654473545955429e-03
         - 2.1318104993299112e-03
         - -2.0792807229852582e-03
         - 1.4158614666938980e-03
         - -1.4027274169071838e-03
         - -2.2045368648913638e-03
         - 1.4152284822082494e-03
         - 2.0776017304350481e-03
         - 1.8025744156330470e-03
         - 9.9866222355474567e-04
         - -2.3696410317319218e-03
         - -2.2997048297506593e-03
         - -4.1220031205319632e-04
         - 1.3155909968711251e-03
         - -1.8512591218222370e-03
         - 7.2309700106338800e-04
         - -6.7249481941697139e-04
         - -9.3880677162632526e-04
         - 5.4085995937998971e-06
         - -1.2568627966251663e-03
         - 2.3540797354095421e-03
         - 1.9258483297359360e-04
         - 2.0414061453407719e-03
         - -5.5441016609146411e-05
         - 1.6725815764287602e-03
         - -1.5141144667079401e-03
         - -8.0722320790434969e-04
         - 4.8796252411046546e-04
         - 1.2086175359074178e-03
         - 1.2514949110977117e-03
         - 3.7731660468528301e-04
         - -2.4826689300271616e-03
         - 1.2886341754009213e-03
         - -5.3360375401134501e-04
         - -1.5712886999594831e-04
         - 1.1766592042732685e-04
         - 6.8167344273453528e-04
         - 1.3105015618259488e-03
         - 2.4140224040915858e-03
         - 2.0326166271387794e-03
         - 3.8221501712223189e-04
         - 1.8753598136256482e-03
         - 1.5706139240755106e-03
         - 1.4080165751850481e-04
         - 5.4730393808934119e-04
         - 1.1817469450253414e-03
         - -7.6467872788588717e-04
         - 2.2710444851607738e-03
         - 1.4284207686235297e-03
         - -2.1640394359977761e-03
         - 2.4457893471332356e-03
         - 1.0302372038769772e-03
         - -6.6290070468812839e-04
         - -1.4451298252028944e-03
         - 1.1914342813724884e-03
         - -1.0918813788870273e-03
         - -9.1364733944037930e-04
         - -2.4583099820259641e-03
         - -6.8171030556053613e-05
         - 1.2496583613574785e-03
         - 6.3776170489075507e-04
         - -3.8683981927118051e-04
         - -1.8659025885716541e-03
         - -1.9792176715292720e-03
         - 3.6679595765748348e-04
         - -1.6397670071395846e-03
         - 2.2832643959672383e-03
         - -1.6444973995184962e-03
         - -4.3799719571041755e-05
         - -1.9234802182087976e-03
         - 1.9955441270866278e-03
         - 7.8379081026646973e-04
         - -6.4226866380196466e-04
         - -2.2320138745057973e-03
         - 1.1573243959949119e-03
         - -1.6460949203925604e-03
         - -2.0755162909711178e-03
         - -1.2109553474629624e-03
         - -9.6223127535712103e-04
         - -2.4556823726113244e-03
         - -2.0884822605287236e-03
         - 8.3647399913376011e-04
         - -1.1715070707087234e-03
         - 2.4278281631352622e-04
         - 1.1581771796937818e-03
         - -4.0330837013380296e-04
         - 1.5824098313722309e-03
         - -1.7101300713433915e-03
         - 9.8356730709377085e-04
         - 1.6734374921022789e-03
         - -2.1473635452652425e-03
         - -1.1191184655680651e-03
         - -2.3292075670681387e-04
         - -3.0185425824921211e-04
         - -2.4501754057127340e-03
         - 1.5519678781633105e-03
         - 1.7895093487173177e-03
         - 2.2824508221209183e-03
         - -6.9918115323958703e-04
         - 2.0545364196580111e-03
         - -2.3435375089882133e-03
         - -1.8624521674573851e-03
         - -7.1530963808762377e-04
         - 1.1792094761575828e-03
         - 1.1042226654290843e-04
         - -2.2926958353979734e-03
         - 1.0962807321928645e-03
         - 1.6831733648141063e-03
         - 1.6013711343898489e-03
         - -1.9381831863357066e-03
         - -2.3382058752455916e-03
         - -3.0810437302436147e-04
         - -1.8981676633092390e-03
         - -2.3042132699242283e-04
         - -2.0610169473894739e-03
         - 2.5842750669696794e-03
         - 1.4309275739700636e-03
         - 1.5143113665246092e-03
         - 9.0615531771475757e-04
         - -1.3587519638244719e-03
         - 2.4651313105914078e-03
         - 1.5240451687102117e-03
         - -2.4282771561775010e-03
         - 1.6318612250107445e-03
         - 3.3842549473152013e-04
         - 3.0722036925785279e-04
         - -7.3227304338553559e-04
         - 2.0044199844071438e-03
         - -2.0345171809719943e-03
         - 2.3343011015022606e-03
         - 1.1342255738478880e-03
         - 4.9593631029242922e-04
         - 8.5410644862180007e-04
         - -1.6293632787721685e-03
         - -1.3219935808418687e-04
         - -5.1521000701130115e-04
         - -1.9641604846128209e-04
         - 1.4276188815836748e-03
         - 2.3182068196054752e-03
         - -2.0848562959408495e-03
         - -1.1070846748979814e-03
         - 1.7618235901167869e-03
         - -2.5618360897068618e-03
         - 2.2319216860293978e-03
         - -1.4248873289222749e-03
         - 2.5075396377822925e-04
         - 1.0416372922339577e-03
         - 1.6182438616021888e-03
         - 1.8310740123394638e-04
         - -2.4202149852918923e-03
         - -1.4834529333748094e-03
         - -2.1989756480028512e-03
         - 1.6468337552542516e-03
         - -9.1285134929262543e-04
         - 1.5151216860828597e-03
         - -3.0812673440370157e-04
         - 1.5911389626931650e-03
         - -6.5570337213540647e-04
         - -2.9035718609049234e-04
         - -1.1680406412625435e-03
         - -1.1102282096722368e-03
         - -1.2260975208491212e-03
         - -1.9098697270013918e-03
         - -2.1367898873433620e-03
         - 2.3938318505867615e-03
         - 1.7692072442782559e-03
         - -1.5633724628327972e-03
         - 1.9480833401877196e-03
         - 4.9223404527388764e-04
         - -2.5238726703305072e-03
         - -1.3079980521101626e-03
         - -2.4689822304553876e-03
         - 2.2754617926418891e-03
         - -1.0526081234787173e-03
         - -3.6487051617187715e-04
         - 7.4661993505201955e-04
         - 8.8176955885737579e-05
         - 1.4204778018725263e-04
         - 2.2194126952998438e-03
         - -1.1465519056710516e-03
         - 3.3471743796456343e-04
         - -1.3690072539198063e-04
         - -1.5037947783071259e-03
         - -1.2131881101341631e-03
         - -6.5869390660468262e-04
         - 2.5136147601643034e-03
         - 6.3911516776470122e-04
         - -6.0170081568829549e-04
         - -1.5975527086024247e-03
         - -1.5081125850617896e-03
         - -1.2483711438428058e-03
         - 1.6958192197941697e-03
         - -1.6874047182942665e-03
         - 2.0406328032924535e-03
         - 5.4109352823225913e-04
         - 2.3572418043326508e-03
         - -6.6461234673784175e-04
         - -2.2344712809501109e-03
         - 1.7370420343524328e-03
         - -2.4953692649923817e-03
         - -2.1902626961608791e-03
         - -1.9654842893343217e-03
         - 1.1293036224160132e-03
         - -8.5480809002626572e-04
         - 7.9639741538591817e-04
         - -1.9809337215259256e-03
         - -2.4630292053501096e-03
         - 1.2599241735902565e-03
         - 8.3371238203419936e-06
         - 2.1592955624610472e-03
         - 2.1999471951598660e-03
         - 1.1908400715213755e-03
         - -1.1157910434807460e-03
         - -2.4904038560582875e-04
         - 1.9828792170721488e-03
         - -1.3476219811589117e-03
         - 1.6144009070914120e-03
         - 4.8018778456202432e-04
         - 2.3727915737910585e-03
         - -2.1034541822378084e-03
         - -2.1415394661600902e-03
         - -2.0942570282149673e-04
         - -1.2922274163676011e-04
         - -9.7633837759629482e-04
         - 1.0675545593480118e-03
         - 2.4247779846677262e-03
         - 1.6104579019445920e-03
         - 1.0372634287889719e-03
         - -1.3263478651929445e-03
         - 4.8783615052579307e-04
         - -2.3871620269005785e-03
         - 2.1658669210854781e-03
         - 4.0543591949549873e-04
         - -1.4967398316167893e-03
         - 9.9766840101011352e-04
         - 9.5842339174919401e-05
         - -1.4131016345175648e-04
         - -1.8496277487055810e-03
         - -3.8688260955722497e-04
         - -7.2722988927389869e-04
         - 5.3577705431732210e-04
         - 6.4167778067824818e-04
         - 1.3213568390607301e-03
         - -2.8343058822535193e-04
         - -2.2457459230124043e-03
         - 1.0844417227544930e-03
         - 9.4519626124856611e-04
         - 2.7932098715385535e-04
         - 1.6473504067753258e-03
         - 1.7313164229988214e-03
         - -1.9908499722539157e-03
         - -3.4302859497689360e-04
         - -8.8577477050569438e-04
         - 1.1383949943254825e-04
         - -8.2428983473605184e-04
         - 2.4935082164892781e-03
         - 1.6620632511049668e-03
         - -1.7924774336673535e-03
         - 1.4014582207323013e-03
         - 1.9521544230356070e-03
         - -4.3369631488864012e-06
         - -2.2558503169665257e-03
         - -6.3522439460446671e-04
         - 1.1794046097692999e-03
         - -5.8840801530963866e-04
         - -5.7352567867470278e-04
         - -2.0118437580888137e-03
         - -1.3476482375602335e-03
         - 1.3548378242118010e-03
         - -1.7252890213117569e-03
         - -9.4683011213765925e-04
         - 1.6393767554926939e-03
         - -1.6294771394427603e-03
         - 2.5219725353717230e-03
         - 1.6091874831158180e-03
         - 1.7540571965168929e-03
         - -1.3138946119233880e-03
         - -1.3818338026690637e-03
         - 1.2919432192977096e-03
         - 5.2065326746362215e-04
         - -1.4259099601866515e-03
         - 1.4388457219316937e-03
         - 2.1229797614214863e-03
         - 2.3265137146770715e-03
         - -9.4943249687301544e-04
         - -2.2401223218766913e-03
         - -1.0299216535163650e-03
         - -2.3407606355034072e-03
         - -1.5261092614926182e-03
         - -2.3265652824038833e-03
         - 4.7096330133939405e-04
         - -2.2141228230922556e-03
         - -1.0368395841838908e-03
         - -2.3902130000099330e-03
         - -6.7511542148368335e-04
         - -1.2864807580300723e-03
         - -7.2476447770544576e-04
         - -2.1492792608209699e-03
         - -1.8627811264475247e-04
         - -2.3201687831470703e-03
         - 1.1290287380168712e-03
         - -1.8669768818578415e-03
         - 2.2362722195235735e-03
         - 8.0332181871714059e-04
         - -2.6364440904096234e-04
         - -1.0969783726154777e-03
         - -1.2612401614405214e-03
         - -2.3146101162683252e-03
         - 1.8099731669868398e-03
         - 2.3059498799041142e-04
         - -1.4460718159596216e-03
         - -4.4575466122235706e-04
         - -9.1976276145972413e-04
         - -3.3430557980620768e-04
         - 1.3008530129872023e-03
         - -6.2276622778126517e-04
         - 9.5453722034921510e-04
         - -2.1125038787852216e-03
         - -2.0708700987723499e-03
         - 1.3896253439127217e-03
         - -1.6220540185531104e-03
         - -6.1094991801359757e-05
         - -2.4033101651940400e-03
         - 2.0200620487014569e-03
         - 1.3401661262286558e-03
         - 1.7378402962273996e-03
         - 1.2622001108558072e-03
         - 2.1219500594079161e-03
         - 6.8735298374746859e-04
         - -9.4233822913175277e-04
         - -1.5570917301707494e-03
         - 9.4202241748686814e-04
         - -8.2246624124944297e-05
         - -2.0779578190614528e-03
         - -2.3425124091877416e-03
         - 2.4800072015925679e-03
         - -3.7517521843828569e-04
         - 1.5333096958438271e-03
         - -2.0463205170469185e-04
         - -9.6729401694072340e-04
         - 1.0278042168776680e-03
         - -2.1471447447724110e-03
         - 2.2219113751527934e-03
         - -7.6046705465305554e-04
         - -1.4477190878338095e-03
         - 2.2969418109218087e-03
         - -1.0498357161568637e-03
         - 7.5893157523197209e-06
         - -5.1427017222484869e-04
         - -2.0741507888035832e-04
         - -1.2750270045966054e-03
         - -1.0205244621941986e-03
         - -2.2674548856424664e-03
         - -1.3183111555557783e-03
         - -2.1033634975185676e-03
         - -2.2761261064939906e-03
         - -9.1252804572785587e-04
         - 8.5654489175597992e-04
         - -1.9076068142659392e-03
         - 6.5237747732591148e-05
         - 9.3643072674621847e-04
         - -1.3167067929967476e-03
         - -1.8707731569319669e-04
         - 2.1096796350695396e-04
         - 7.6982404271420371e-04
         - 1.7329578598765589e-03
         - 1.5787247828741168e-03
         - -1.5179642873671131e-03
         - -8.7803738569985153e-04
         - 4.3472526194037012e-04
         - 5.6108848391255299e-04
         - 8.1344258797895409e-04
         - -3.0913411210118117e-04
         - -1.3031592582726976e-03
         - 8.9551951712634685e-04
         - 1.3912398855951233e-03
         - 1.0562222524353839e-03
         - -2.4191583006407012e-04
         - -1.3910501813282044e-03
         - -1.1338867673053499e-03
         - 8.0296326768569399e-04
         - 1.8205861206110248e-04
         - 1.5261867539824105e-03
         - -2.3428463568896710e-03
         - -1.2240567201625651e-03
         - -9.6631872044087251e-04
         - 2.6675942656919824e-04
         - -8.5755558735715973e-04
         - 2.1016492322200953e-03
         - -1.2781205696404214e-03
         - 3.2698463444199926e-04
         - -5.4219878123946041e-04
         - -2.4234602196634945e-03
         - -1.5195794717596999e-04
         - -1.1159745783324152e-04
         - -1.2754761472135786e-03
         - 1.8740413463363139e-03
         - 7.1723437773865557e-05
         - 7.0681783326243908e-04
         - 6.2635235000914981e-05
         - -1.9164362505714274e-03
         - 1.7087481195290730e-03
         - -2.1696413633305617e-03
         - -2.9219060401943685e-04
         - 1.1382689203266938e-03
         - -1.1539536179386771e-03
         - -2.0406751141909523e-03
         - 2.6531530683694866e-04
         - -1.8971258327623304e-03
         - -7.3802756998401673e-04
         - -5.6600145153860144e-06
         - -2.3373421163277400e-03
         - 6.1385090351922774e-04
         - -2.1614650108792610e-03
         - 1.7154924714512978e-03
         - -3.2312846534339213e-04
         - 2.1057069694721407e-03
         - -3.7232250150414617e-04
         - 1.8566350946428575e-03
         - 2.2811978958039861e-03
         - -1.0426359743104729e-03
         - 1.0763833965110746e-03
         - -2.4059253182243359e-03
         - 1.9347237773982432e-04
         - 2.3471026210998363e-03
         - 5.9245486328478314e-04
         - -1.2721968826263702e-03
         - -1.4765407922161216e-03
         - 4.7361676204731853e-04
         - 2.0528567978636831e-03
         - 2.3960840416291378e-03
         - 2.2891213066334138e-03
         - 1.2260727197541549e-03
         - 4.7076443270880312e-04
         - -1.8989075810434202e-03
         - 1.5614734726158710e-03
         - 1.5756456005196256e-03
         - -1.9407772307120661e-03
         - -1.8114495270365185e-03
         - 1.7837455557398541e-03
         - -7.8965220393009000e-04
         - 1.2194176206592926e-03
         - -3.9373441084868441e-04
         - -7.0036304922911543e-04
         - 1.7669639648478135e-03
         - -7.6998449352049783e-04
         - 2.3700409985625667e-03
         - -2.3310014938941756e-04
         - 1.9394414123851826e-05
         - 1.1251285611750094e-03
         - -1.1411157294395837e-03
         - -1.8065037803539484e-03
         - -1.3750306883229082e-03
         - 1.5184359208290611e-03
         - -2.5577932330219425e-03
         - -1.5315560569063270e-03
         - 1.2450623862970492e-03
         - -1.6769463282852266e-03
         - -1.1407877696454607e-03
         - -1.7450602488574770e-03
         - 2.3707486576198195e-04
         - 2.2397168151562005e-03
         - 2.4220829391889110e-03
         - -1.1825633399235272e-03
         - 4.6799572598169991e-04
         - 1.6521004652817952e-03
         - 2.0649586365204982e-03
         - 1.8520543735109361e-03
         - 1.4466576111475499e-03
         - -1.0408105381045029e-03
         - -2.4429848070626158e-04
         - 2.1278611551909612e-03
         - 1.1052344849717616e-03
         - 9.1089933745043311e-04
         - 3.7423707290461141e-04
         - 1.0766520363299718e-03
         - -5.4924400659971080e-05
         - 1.4747365807939088e-03
         - -2.3342038998617810e-03
         - 9.3863755278867191e-04
         - 2.0868864267757263e-03
         - 1.4353976223345937e-03
         - 8.0670722930146273e-05
         - -6.6601619693575488e-05
         - -1.1728615964104660e-03
         - 1.2641911193869706e-03
         - 1.4600304651329560e-03
         - 2.4609058252736652e-03
         - 1.2192572683549512e-03
         - -1.4261947267697258e-03
         - 6.6948891517977537e-04
         - -1.4088055714047633e-03
         - 2.1666629295697421e-03
         - 1.8462668773158160e-03
         - -1.5914993803691688e-03
         - 6.7238500974824689e-05
         - -1.0998054362592301e-03
         - -1.1244515633596840e-03
         - 2.2465617770209213e-03
         - -1.3860609169086692e-03
         - 8.8414290736526352e-04
         - 1.2418506404166746e-03
         - -1.6415465303808944e-03
         - 2.4166337702832010e-03
         - -2.1111835766581674e-03
         - 2.2585166705138405e-03
         - 1.5041022026570572e-03
         - -1.9402429626209854e-04
         - 1.5635912823090561e-03
         - 1.0527846433361755e-03
         - -2.4169009030789610e-03
         - -1.3854918430142484e-03
         - 1.1361739990135213e-03
         - -1.2725678100463907e-03
         - -2.2918120002442043e-04
         - 4.5706989180679627e-04
         - -1.2491618415399546e-03
         - 7.7696310751877891e-04
         - 1.6452238744204136e-03
         - -1.7248358245805401e-04
         - -2.0240745936171011e-03
         - 1.3772838039329447e-03
         - 1.4563748305047501e-03
         - -8.9460343635394412e-06
         - -8.8048899602689618e-04
         - 2.3318587350374203e-03
         - 2.2810023990172744e-03
         - -5.4024944613879249e-04
         - -1.8062263539025743e-03
         - 2.2589095719825567e-03
         - 6.2317448038875340e-04
         - -1.6378367687758216e-03
         - 1.9693113426982930e-03
         - 1.6062785701707767e-03
         - -1.4651675207955888e-03
         - -1.0536184707310462e-03
         - 2.5578790769550616e-04
         - -8.9609605955051329e-05
         - 7.0863529884173976e-04
         - 1.1717752916543889e-03
         - -6.5315598326807719e-04
         - 1.0237435601995993e-03
         - -1.8723753304900521e-03
         - -5.0490023417727335e-04
         - -8.7468650342374665e-04
         - 1.7086922934829211e-03
         - -1.1177371690212737e-03
         - -1.0977192298165536e-03
         - 1.1708706722467967e-03
         - 9.3807082562001153e-04
         - -2.0463162470105429e-03
         - 3.3340087556159629e-04
         - 8.0738156914729627e-04
         - 2.3864595936154368e-03
         - -2.2633912999653308e-03
         - -8.8443685462903025e-04
         - -1.0945426654387529e-03
         - 2.1114512972206503e-03
         - 1.6292350416410603e-03
         - -2.0214387742166955e-03
         - -1.5304206143414241e-03
         - -2.5543792238464612e-03
         - -1.3190252779464999e-03
         - 1.3667392178958392e-03
         - -1.7589560372211733e-03
         - 1.6363905741839570e-03
         - 1.3785901492832497e-03
         - 2.0083151546723349e-03
         - 1.8272778278342235e-03
         - 6.9828899729658671e-04
         - 5.1735722337835604e-04
         - 5.1785538133258347e-04
         - -2.2195795021714851e-03
         - -1.9206163588961576e-03
         - -2.3564656836951659e-03
         - 8.2126803989862628e-04
         - -4.2084850458190711e-04
         - -2.3587344326903787e-03
         - 9.1357249180923600e-04
         - 1.9292145995443890e-03
         - -2.1951551430501085e-03
         - -8.6467205170623806e-04
         - 2.0450267767225462e-03
         - -1.1554535384737091e-03
         - 1.8222234801288639e-04
         - -1.0240729083307129e-03
         - -2.4259810056627643e-03
         - 1.2909672784429216e-03
         - -1.4727425877345641e-03
         - 9.8566882800872960e-04
         - -1.7897816937535529e-03
         - -1.5935451973514072e-03
         - -1.0374744319149859e-04
         - -2.0618520102469022e-03
         - 6.5600387690814999e-04
         - -1.9672737562515623e-04
         - 2.1460499370567288e-03
         - 1.1049065731680995e-03
         - -1.1124302738558074e-03
         - -2.4493817607904389e-03
         - -1.9128838029790416e-05
         - 1.5226777457462066e-03
         - 4.8162380028477479e-04
         - -2.2248485088827374e-03
         - -1.3337644822310629e-03
         - -1.2570264942768554e-03
         - -1.3471148801908305e-03
         - -1.9327819353228107e-03
         - -8.3674110324846740e-04
         - 1.6038869237644995e-03
         - -2.3718096809756768e-03
         - -2.3197604221525925e-03
         - 2.1373903023772325e-03
         - 1.7335641348217687e-03
         - -5.4834811514299929e-05
         - 1.8489978706990979e-03
         - -5.9709966640714032e-04
         - -7.5408931194511839e-04
         - -2.6701187113072674e-04
         - -1.6205887633824940e-03
         - 2.0358579351147518e-05
         - 1.4710876347898301e-03
         - -4.0469844855370448e-04
         - -1.2499106254333717e-03
         - -2.0022857787331330e-03
         - -1.6101205454131292e-03
         - 2.1193049414988722e-03
         - -1.0145529383584655e-04
         - -4.9366862534875374e-04
         - 1.8996068578570392e-03
         - 1.2751935717241465e-03
         - 5.5986018710755094e-04
         - 2.3401255253264319e-03
         - 1.8574524887066375e-03
         - 2.5449263979385205e-03
         - 4.9174117610266280e-04
         - 2.1159212455854250e-03
         - -2.2518042367263066e-03
         - 2.4168842712453172e-03
         - 2.0128130992059924e-03
         - -4.1407593537220707e-04
         - -4.2911295418353003e-04
         - 1.9337204557676676e-04
         - 8.1521574437030627e-04
         - 1.9337108456058407e-03
         - -2.0227188024618029e-03
         - 5.3144872838818893e-05
         - -8.3253476628240397e-04
         - -1.7613601221703166e-03
         - -5.3310785367231958e-04
         - 1.8644099487470393e-03
         - -2.4323731400010648e-04
         - 9.4286154477943979e-04
         - -2.5086734848478748e-03
         - -1.2774683424536522e-03
         - -2.0728466905956451e-03
         - 4.9523821117368232e-06
         - -5.3542046750893011e-04
         - -2.1120917059856094e-03
         - 8.8868961566093609e-04
         - -1.1822627199413681e-04
         - -1.5608568662101197e-03
         - 2.4843638094590916e-03
         - -1.4643507096143977e-03
         - -3.0941395677795995e-04
         - -1.2020835393391559e-03
         - 1.2402720079093296e-03
         - 2.8467446622635289e-04
         - 7.1301419407129364e-06
         - -1.9520772735413894e-03
         - 9.6478133724800226e-04
         - 1.6748590481547787e-04
         - -1.8426482634378873e-03
         - -2.5044088343399019e-03
         - 2.1328752650343042e-03
         - 9.7940098225204691e-04
         - -1.1246740974158590e-03
         - -1.2147735505715627e-04
         - -1.9877965366416608e-03
         - 8.3164271816482465e-04
         - 2.0051486555808354e-04
         - 1.0971990663864980e-03
         - 1.7896879019800433e-03
         - -1.1643265276362258e-03
         - 1.4704769451938369e-03
         - 5.5558269047500654e-05
         - 1.6323857113135344e-03
         - 2.4622543811438904e-03
         - 2.1903342252888904e-03
         - 1.7804830544741793e-03
         - -2.3797625596339120e-04
         - -8.2481057183995520e-04
         - -2.0514012269355376e-03
         - -2.4228625125908812e-03
         - -6.5185124875874608e-04
         - 7.4441134276044952e-04
         - 3.9274501889417248e-04
         - -5.9630297485111508e-06
         - -2.0094444388413569e-03
         - 1.2786259815994892e-03
         - 1.8483514612749267e-03
         - 1.0924476856528156e-03
         - 1.3703479507249977e-03
         - -2.2618816221256842e-03
         - -2.3716226246977214e-03
         - -1.9177022292146152e-03
         - 9.0703075697015916e-04
         - 6.5955289830785821e-04
         - -2.1405205958201765e-03
         - -7.2486270088028117e-04
         - -1.0917630964900787e-03
         - -1.9541590888534077e-03
         - 4.5156899081024321e-04
         - 5.4002040559780588e-04
         - 2.2391480353225472e-03
         - -1.6010439034394876e-03
         - -1.1174760230132437e-03
         - -1.4513431825391224e-03
         - -1.6545687068442430e-03
         - 1.1090023763992985e-04
         - 2.1829173709937335e-03
         - -1.2808192632084585e-05
         - 2.1697119832870169e-03
         - -7.6337168974958383e-04
         - 2.2633557524947543e-03
         - 4.0524618451984639e-05
         - 5.4523635759113750e-05
         - 1.4157782376254793e-03
         - -1.9231674831963266e-03
         - -1.8932437268725808e-03
         - 1.5073124817033645e-03
         - 3.7344011120402901e-04
         - -8.6869773231547463e-04
         - -1.2680638710081300e-03
         - -1.3827853288151163e-03
         - -2.4490457569583558e-03
         - 5.2371653024836163e-04
         - 1.9584453219989749e-04
         - -2.5647546898701148e-03
         - -1.2653929498345172e-03
         - 2.4321291893376284e-03
         - 1.9017588273957724e-04
         - -1.2950321640435746e-04
         - 2.1116820088001718e-04
         - -2.5063244525518314e-03
         - 2.3174843074760293e-03
         - 2.3703290141336010e-03
         - -3.6058830986179390e-04
         - 1.9146263822081034e-04
         - 2.2402937356027111e-03
         - -6.2038563732430443e-04
         - -1.4608700166401033e-04
         - -2.5238414107063888e-03
         - 1.2232485752911701e-03
         - -1.8069679075870422e-03
         - 1.4890151317399774e-03
         - -1.5688944252391836e-03
         - 1.4129163617445123e-03
         - -1.6156236797334014e-03
         - -2.2620988399443161e-03
         - -2.0706874204191542e-03
         - 1.4349816376438445e-03
         - -1.7463602319458989e-03
         - 2.1817553520688412e-03
         - 1.4467103983496668e-04
         - -1.1724437719222628e-04
         - 9.8614374930735497e-04
         - 5.3238619708958913e-02
         - 2.2577816925037585e+01
         - 1.2865782979739890e-01
         - 8.5772128441577389e-02
         - -3.9563625557185172e-01
         - -1.4322485984343605e+00
         - -9.9765515018881742e-02
         - -3.8144673502820636e-01
         - -6.2849057298211511e-02
         - 1.2378535018059049e-01
         - 2.6937226641414567e+00
         - 2.7872440336339808e+00
         - -1.1618965472690990e-01
         - 5.3040894888198631e+00
         - 1.7126043230831905e-01
         - -2.0822435057291988e-01
         - -1.6222904510432645e-01
         - 7.8227575732370380e-01
         - -2.6852622780901192e-01
         - -1.8793683870321740e+00
         - -8.9977978174385992e-02
         - 1.2199254024876667e-01
         - 3.1223745252813778e-02
         - -5.3836386883596522e-02
         - -1.2542956834951977e-02
         - 2.5168104311623368e-01
         - 4.5481947152002655e-02
         - -8.1632664305771069e-02
         - -8.9910863594413637e-01
         - -1.8213016747318983e-02
         - -8.0721107027343930e-01
         - -1.4650142305016076e-02
         - -5.4171017887235440e-02
         - -5.8386777141626340e-04
         - -6.7094765135915044e-02
         - -7.6287065550191741e-02
         - -9.0113680705879870e-02
         - 1.7344607485050936e-01
         - 1.9302524318230138e-01
         - 8.2767093911484346e-02
         - 6.0245277087694218e+00
         - -9.1832593546017705e-01
         - 1.1751403165843367e+01
         - -5.7295728714882965e-01
         - -8.0843311705564069e-01
         - -6.0450529441494105e-01
         - 4.2344451039856616e-02
         - -2.7966139797202816e-01
         - 3.2141710463273881e-01
         - -3.0504931448114951e+00
         - 2.8970544526523569e-02
         - -6.6716618044019693e-01
         - 7.4822704442770283e-02
         - 1.5220823699790656e-01
         - 3.2170398776158221e-01
         - -3.5003040733875275e+00
         - 2.7972653202617931e-01
         - -5.7403756147357854e-01
         - 1.2001842540621946e-03
         - 3.1211342219634624e+00
         - 3.3388130638376312e+00
         - 4.5353025727028728e-01
         - -1.8636225455647809e-01
         - -8.6220340891219269e+00
         - 2.2825482527721863e-01
         - -5.9750115332039699e-01
         - 1.8568739993544767e+01
         - -4.7798483525184655e-02
         - 3.4888884160239308e-01
         - -1.2987152244416589e-01
         - -4.0824887906619500e-01
         - 5.3880760573542874e-01
         - 2.9199630798240378e-03
         - 4.5288285514862104e-03
         - 8.3820466905910797e-04
         - 4.4460571576480329e-01
         - 6.1785726791344323e-02
         - -2.3876307510370129e-01
         - 1.3977890534904418e+00
         - -3.6516331757185588e-01
         - -5.3582446246001691e-01
         - -6.5021377330703137e-02
         - -3.5429320015780091e-01
         - 1.6219033962446583e-01
         - -1.0932704325847672e-01
         - -6.3370269365288978e-03
         - 8.6817361850046226e-01
         - 1.1321500351931839e+00
         - -1.3619643793922784e-02
         - 2.9380603932359171e-02
         - -4.6369948045216276e+00
         - 1.3690502930552615e+00
         - 1.2796162001635958e+00
         - -2.1338709591570519e-03
         - -5.4528583565521389e+00
         - -8.6305555633567885e-02
         - -8.8467574636010637e-01
         - -3.2631513785204333e-02
         - 1.6244859521227884e-02
         - -9.2114381593229461e-03
         - -1.6019720969053730e-01
         - 1.7352030696077392e+01
         - 6.7883004426002724e-01
         - 7.3237578194793718e-01
         - -2.1930117961436899e-01
         - -1.0846843245369513e+01
         - -1.3280964665078657e-01
         - -3.0573414908772896e+00
         - 2.9312466561877533e-02
         - 8.3226625070928772e-01
         - 2.1126956097067819e+01
         - 2.0709272073007621e+00
         - -7.8679384090968418e-02
         - 3.9951463717697537e+00
         - 3.9112975525119303e-01
         - -7.7981125707322241e-01
         - -1.9058113920200668e+00
         - 6.3398414323338885e+00
         - -4.1066130690446334e-01
         - -1.4531206326537143e+01
         - -1.0332001541935160e-01
         - 2.4970072405047519e-01
         - 6.3110162319197416e-02
         - -6.7818465716450338e-02
         - -1.6893696176651343e-02
         - 1.2335598552292169e+00
         - 5.7101960722196414e-02
         - -1.0701561180675519e-01
         - -7.3539266440749893e+00
         - -1.7180347748286035e-01
         - -6.9713117444129502e-01
         - -1.6209526244000020e-02
         - -6.9097620387986391e-02
         - 3.5320038576525450e-03
         - -4.6161419309896512e-01
         - -4.8920711763187463e-02
         - -7.7448781249703308e-02
         - 6.4957457551712994e-01
         - 1.5405223627881703e+00
         - 1.0648161352914148e-01
         - 4.5854846622811625e+00
         - -6.5737765773897028e+00
         - 8.9883848193453328e+00
         - -5.0086284426151684e-01
         - -6.5126021382434827e+00
         - -5.0000827018174538e+00
         - -8.3673521537199647e-02
         - -1.8283552939735050e+00
         - 2.9996204667572607e-01
         - -2.3125683293906185e+00
         - -3.4191185763511484e-01
         - -5.2224934951662894e+00
         - 1.0054617836794368e-01
         - 1.6337333396688572e-01
         - 1.7284123168715952e+00
         - -2.7024468080220032e+00
         - 2.1439127169421370e+00
         - -3.3872395177625201e+00
         - -1.7490154387347669e-03
         - 3.0765679293947996e+00
         - 2.5305880441381539e+00
         - 3.4994938776508273e+00
         - -1.7036528608922696e+00
         - -6.6144260979448308e+00
         - 2.1515038146598600e+00
         - -4.2742284632247463e-01
         - 1.4135839612989455e+01
         - -6.4746742398287344e-02
         - 2.6234344268828549e+00
         - -1.6554627308767966e-01
         - -3.5001313637779019e-01
         - 4.5786851338675294e-01
         - 4.2462097059560056e-01
         - 6.5057068680018631e-03
         - 2.4092136947830110e-03
         - 3.9177196401955250e+00
         - 7.8892250342203249e-02
         - -1.7446374037976544e+00
         - 1.1181416537353131e+01
         - -2.7989735716026476e-01
         - -4.4806219539829133e+00
         - -8.6314933398303276e-02
         - -2.9585925725150197e-01
         - 1.3978487592866549e+00
         - -1.4118322482395582e-01
         - -5.9944791737399548e-02
         - 6.4243077479249733e-01
         - 9.5496217217334534e-01
         - 2.6420741146604001e-02
         - 4.2619317435781429e-02
         - -3.4513612146318458e+01
         - 1.0685527405166109e+01
         - 6.2483121837118394e-01
         - -2.6019290935322326e-01
         - -4.1365441162574390e+00
         - -4.4510523732799723e-01
         - -6.8486758494525661e+00
         - -4.0714951412744400e-02
         - 1.7307890377337456e-02
         - -7.9830910804694691e-03
         - -3.4593872697879086e-01
         - 1.5110103955755241e-01
         - 9.9877329318561259e-01
         - 1.1480796406792639e+00
         - 1.4413751609530417e-01
         - -1.6749390620747846e+01
         - -1.0011921175634826e-01
         - -4.7494020204743475e+00
         - 1.3742738130508164e-01
         - 1.2618082004445967e+00
         - 3.2753507359924079e+01
         - -1.0503614020350925e-01
         - 1.1864641105674241e-02
         - -1.0343631704459801e-01
         - 4.5020600084747059e-01
         - -1.0650450970552729e+00
         - -3.0624111300606569e+00
         - 9.8585943149924837e+00
         - -3.4785333786391592e-01
         - -2.2497683604643278e+01
         - -5.6626535240323121e-02
         - 2.6757448003022294e-01
         - 6.1583134120668695e-02
         - -4.7277312505854048e-02
         - -1.1466395980042642e-02
         - 1.7897859797909996e+00
         - 4.0732698835317410e-02
         - -7.7239863887087340e-02
         - -1.1445103383584618e+01
         - -2.7537350458332827e-01
         - -1.3875101496518585e-01
         - -1.1745281981670876e-02
         - -5.0687052795915483e-02
         - -1.8523226204291671e-04
         - -7.0546497097026484e-01
         - 1.5969369373977856e-02
         - -1.4538666058361240e-02
         - 8.9344610900500177e-01
         - 2.3957629573152102e+00
         - 7.7988187041059240e-02
         - -4.0585159022722618e-02
         - -1.0088632958761456e+01
         - 6.5860157096531008e-03
         - -1.0381791022585390e-01
         - -1.0128167701572947e+01
         - -7.7931548423139070e+00
         - -1.9993588262277431e-01
         - -2.7710653219484334e+00
         - 9.2872437206310679e-02
         - 3.9165202724388525e-02
         - -6.2519319089122527e-01
         - -8.0964393518795443e+00
         - 7.6201265087004866e-02
         - 7.9885598426878007e-02
         - 2.5472945617610221e+00
         - -3.9747155498596781e-02
         - 3.3168837906544075e+00
         - -5.0715250390056879e+00
         - 1.8782891789598940e-03
         - 1.1887161464115168e+00
         - -3.5509881822850080e-02
         - 5.4122963500940644e+00
         - -2.6816781861304442e+00
         - -3.9638178210695263e-02
         - 3.3899227532855112e+00
         - 5.1015139741171903e-02
         - -1.0970289441510576e-01
         - -4.8776090944829521e-02
         - 4.0454199535460686e+00
         - -1.1191035584746238e-01
         - -6.8311221882902118e-02
         - 7.1482385933486145e-02
         - 7.2021558777519279e-01
         - 4.8237287524956823e-03
         - 2.9731332043208022e-03
         - 6.1488712989784613e+00
         - 5.6836226007300886e-02
         - -2.6826486574782993e+00
         - 1.7370654151549910e+01
         - -5.0144642932975518e-03
         - -6.9908639423331982e+00
         - -5.6705149965595558e-02
         - -3.6772245334153360e-02
         - 2.1883841936023876e+00
         - -1.0134985558789336e-01
         - -9.5257943240533063e-02
         - -4.1391152733500788e-02
         - 1.5074985281987296e-01
         - 6.3425262477362784e-02
         - 2.7732897547947642e-02
         - -5.3197886489332063e+01
         - 1.6556929378309334e+01
